38.251881,13.915865,-22.452812,-17.906546,29.124907,27.502760,26.251713,-21.933632,41.103161,-33.795383,-29.914619,30.296759,-4.642046,3.000393,33.510666,20.867662,6.592821,24.394400,8.164909,2.504007,-20.926596,26.853626,33.561287,-29.681091,9.594796,-11.474541,33.820412,-11.166247,-37.222363,16.099955,-9.990137,37.272133,-9.163678,0.565827,-11.333844,-17.598343,-22.624329,-18.615221,-8.800379,-15.860967,-19.159529,8.171704,-27.053062,23.667347,-31.422764,-42.333672,13.093186,10.832219,28.217634,-27.887434,-15.608052,-35.296253,-33.562622,-27.151184,-40.424908,24.222881,2.997521,34.139633,-19.107435,19.601894,22.399551,5.683606,9.405098,-33.665737,-40.370171,37.751331,-27.090311,-5.018168,-20.318937,13.855400,13.888859,-1.313598,-20.567747,30.185049,-3.971080,-14.999065,24.547024,-48.854233,-35.745502,22.015814,-21.399712,-14.207850,17.368399,-4.137255,3.302255,21.195814,-9.301789,-35.066269,26.251211,3.754832,9.874571,-3.278544,-19.848961,-17.072603,4.857587,-14.872447,-20.548727,12.798286,12.538204,-2.702782
21.808208,7.966866,-13.459144,-11.123241,16.494839,14.672759,11.948402,-12.747583,20.770708,-20.420115,-18.400274,16.393219,-3.986015,0.011273,19.650183,10.947486,4.369060,14.396417,1.388059,2.567847,-10.063466,12.789767,18.146624,-14.701401,4.412301,-7.169023,18.385601,-4.903350,-23.087648,7.540303,-4.665362,21.117136,-4.239856,-0.339861,-5.263324,-9.024041,-13.490458,-9.745295,-5.050146,-9.275071,-10.981487,2.591085,-14.956301,11.959230,-17.977640,-24.901649,7.327734,5.415541,17.507013,-17.282900,-7.527484,-19.862808,-18.821459,-16.127073,-24.514832,13.295160,0.924108,18.595152,-12.042765,11.481006,12.726637,3.066300,5.571425,-16.775547,-25.389433,21.946329,-15.695934,-2.382387,-10.181349,7.243818,6.308920,-0.994283,-10.745096,18.352465,-1.174208,-8.440715,13.984787,-30.343966,-20.119322,12.426896,-12.612658,-7.591856,11.628999,-2.246516,2.195398,11.572391,-5.194103,-20.380592,16.279999,3.097709,3.152768,-2.383024,-10.078735,-10.538685,5.007354,-6.313423,-13.064517,4.768043,5.632514,-3.077305
8.987000,2.883664,-6.033782,-5.710786,6.619817,5.230025,3.487827,-5.160893,7.410987,-9.078811,-9.425069,6.356176,-3.138216,-1.882582,8.260277,2.759541,2.734726,4.715565,-0.667945,1.010374,-3.598194,4.799890,5.733787,-3.465459,1.738074,-4.571946,6.810768,-2.242857,-9.752386,1.934505,0.432692,7.605565,-0.474805,-1.495690,-0.271949,-1.911038,-6.271786,-4.620521,-4.469606,-4.386301,-7.162481,0.463125,-5.261774,3.952529,-9.598883,-12.653917,2.113743,-0.039454,6.687891,-8.173628,-3.780729,-8.042052,-7.226714,-6.860918,-12.934237,4.026911,0.620287,4.384981,-5.598145,6.524402,5.551262,-0.301029,-0.023262,-6.272993,-11.946618,11.134636,-7.184982,-0.199806,-5.928233,4.201712,1.635843,-2.996791,-3.614587,7.772968,1.523439,-3.217844,6.062897,-14.381419,-9.035125,6.804513,-5.562622,-2.512177,4.708736,-2.347607,1.652779,5.206123,-0.860446,-10.356984,8.760303,0.923608,-0.757433,-0.213585,-1.917170,-5.110770,3.140797,-1.333539,-7.177507,1.784188,2.319631,-3.011811
4.608107,1.047002,-3.392642,-3.538645,2.933607,3.329409,2.554623,-2.381612,4.362555,-5.154169,-6.363450,3.892830,-2.393316,-2.097790,3.762800,-0.116155,3.058999,0.884388,0.036514,0.256851,-1.443561,3.447772,2.208909,-1.013465,2.095992,-3.460979,2.370068,-2.981410,-4.718672,0.804152,1.929493,2.364333,-0.185345,-2.072147,1.284240,1.621109,-4.543464,-3.596988,-4.182126,-1.780210,-6.287556,1.443725,-1.673429,1.570177,-6.931988,-8.454979,0.486850,-1.980390,1.615808,-5.475663,-3.411063,-3.750976,-4.343288,-2.719127,-8.588294,1.432402,0.833844,-0.607801,-2.864382,5.407821,3.629279,-2.125763,-2.378892,-3.918094,-6.587685,7.706498,-4.660205,0.292251,-5.283240,4.121343,-0.372109,-3.642448,-0.812856,3.617512,2.333458,-1.223393,3.580908,-8.703094,-6.149259,4.954144,-3.913305,-2.017120,1.445742,-3.418944,1.791454,3.588800,1.336659,-5.843328,6.312350,-0.312348,-1.150756,-0.116472,0.985088,-3.528697,1.618762,-0.704994,-4.733075,1.603006,1.902656,-2.087964
5.736644,0.089349,-5.369072,-3.595516,5.700592,5.641581,6.803129,-4.952109,9.212795,-9.612626,-8.592382,5.234800,-2.395756,-0.818276,8.080582,1.061241,2.443802,4.460950,1.461459,1.336181,-3.566730,5.358777,5.832655,-5.361929,5.230800,-3.630213,6.810811,-3.986860,-9.081729,2.896020,-0.323523,6.403679,-1.799294,-0.616308,-1.084201,-2.290366,-4.871163,-7.224807,-4.839236,-4.356008,-6.694471,2.032068,-5.089795,4.695338,-10.391119,-10.543774,2.764342,0.499319,4.541837,-4.195661,-5.937561,-7.865633,-6.904997,-8.414843,-9.213273,3.723215,3.558106,3.656927,-5.330734,5.304337,3.655507,-1.117969,-2.077547,-8.677651,-9.467365,9.760062,-5.707178,-1.177515,-8.660583,5.812198,1.052341,-1.756391,-3.760647,8.153183,-0.635341,0.896472,7.810322,-10.932012,-9.287172,6.508223,-4.876561,-5.212820,4.486527,-3.474247,1.723871,7.727040,-0.382491,-10.084336,6.814753,-0.646138,-0.007009,-2.712680,-2.395569,-4.385170,3.066285,-1.927273,-5.380945,6.185294,4.963326,-0.442863
7.349425,0.140508,-6.999241,-3.612419,6.982536,6.444849,7.765886,-6.408549,10.607643,-12.735347,-9.897823,5.997272,-2.806759,-0.257925,10.888275,2.123303,2.362718,7.606106,0.671936,1.973010,-4.833783,5.509861,7.566316,-6.719791,5.714119,-4.164478,9.297099,-3.632335,-11.081862,3.772330,-1.287331,8.766522,-1.833802,0.631268,-2.248557,-4.305677,-5.219646,-7.185434,-5.638539,-7.025494,-6.183843,1.735824,-8.390031,5.528437,-11.439713,-11.734420,5.231330,3.150118,7.055200,-5.144898,-6.277209,-10.628369,-7.251125,-11.224708,-10.402403,5.382631,3.635027,5.779934,-6.690968,4.935928,3.238604,0.226989,-0.816585,-10.255284,-11.736007,10.094520,-7.349002,-1.543289,-8.716604,5.273649,2.123605,-1.821235,-5.808139,10.345062,-2.626012,1.499909,9.247332,-12.907043,-9.799460,7.841719,-5.588732,-5.966156,5.674160,-2.871070,2.656149,9.494799,-1.555578,-13.526038,8.052524,0.194718,-0.871523,-3.864337,-3.645430,-4.218771,4.838393,-1.542650,-4.937392,6.887479,4.530149,-0.674781
4.322845,-0.465972,-5.491951,-2.592194,3.794143,3.352889,2.799198,-4.271944,4.639473,-9.409525,-6.883480,2.920758,-3.402584,-1.261070,8.244812,0.617588,1.487913,6.630315,-2.547627,1.806516,-1.828066,0.668628,3.782570,-2.174962,3.143220,-3.240551,6.347248,-2.236240,-7.910779,0.975463,-0.176189,5.284453,0.703105,0.946521,-0.155927,-1.745669,-3.041703,-2.587217,-3.913499,-5.980019,-2.990501,0.416235,-6.632126,1.019801,-7.351995,-7.646477,4.810060,3.459981,5.461602,-4.317482,-2.168314,-7.110775,-3.482485,-8.734805,-6.556985,3.276373,1.360730,2.648403,-4.859803,1.962688,1.485905,0.468696,-0.165748,-5.003477,-9.553020,5.028242,-5.744884,-0.581411,-3.893965,2.365054,-0.384667,-2.153726,-3.725875,7.818896,-2.552711,2.557971,5.797186,-9.755962,-4.198263,5.978021,-4.841532,-3.798062,4.148009,-1.826978,3.337945,6.022841,-0.363667,-10.466568,6.342229,0.676467,-3.924189,-3.865751,-0.767898,-2.342021,6.191358,1.333619,-2.438795,2.919489,0.585848,-1.502021
1.883626,-0.816980,-4.888118,-1.165419,1.640428,1.744837,2.518695,-3.586168,3.064734,-6.889463,-4.969968,2.900797,-3.195260,-1.493259,5.232910,-0.773095,2.060411,5.986877,-1.741410,1.412313,-1.662935,-0.385227,2.996033,-1.392275,4.228959,-2.637161,3.972770,-2.377535,-6.022292,0.299820,-0.684548,3.246554,0.177813,0.743483,0.206187,-0.603482,-1.340055,-2.264944,-3.799552,-4.191145,-1.969229,0.224029,-4.936577,-0.312087,-5.572178,-4.765691,4.314225,2.613684,3.241261,-2.645185,-2.663904,-4.546353,-1.520387,-6.366220,-3.939326,2.110146,1.360895,0.559323,-3.563189,0.578249,0.769087,-0.278263,-0.927595,-4.193523,-6.870553,4.144068,-4.894157,0.508416,-4.485602,2.084739,-1.461059,-2.226780,-1.994181,5.015666,-2.091491,3.459689,4.929797,-6.596292,-3.558479,5.512682,-3.364401,-4.198859,3.624707,-2.541263,3.580550,5.736981,0.326261,-8.506930,5.058775,0.058870,-4.632108,-3.015510,0.537987,-1.494977,5.151692,1.477005,-1.368963,3.616508,0.475395,-1.626514
-0.491594,-0.304196,-3.591980,-0.061545,-1.425223,-1.116310,0.058688,-2.262754,-0.826377,-3.075062,-2.677458,3.193242,-2.216325,-2.362506,1.020433,-2.352144,2.454099,5.058380,-2.335070,0.569574,-0.923561,-1.736971,1.046811,1.420125,3.886960,-1.147709,-0.025269,-1.256377,-3.960389,-1.213893,-1.228126,0.421032,0.610195,0.409381,1.371946,1.477037,-0.260240,-0.895548,-2.938079,-1.289233,-0.535601,-0.593450,-2.209654,-2.433785,-2.416267,-2.328809,2.507931,0.961894,0.617732,-1.749528,-1.494720,-0.557583,1.003862,-2.555050,-1.673052,0.052811,0.782629,-2.082632,-1.935081,-1.363922,0.393830,-0.676319,-1.161031,-1.582110,-3.961901,3.960230,-3.853137,2.330945,-3.875162,0.908772,-2.688350,-2.149274,0.755007,1.247783,0.595125,2.888828,3.180910,-3.550033,-2.326890,4.754959,-1.797897,-3.223722,3.241060,-2.480622,2.696993,3.538670,0.914627,-5.336193,3.956322,-0.388942,-5.396301,-0.779811,2.277180,-0.611244,3.535942,1.244939,-0.848254,2.200766,-0.814478,-2.461927
1.610857,0.256340,-5.362811,-0.916648,0.825577,0.267040,3.514287,-4.711250,2.388271,-4.711693,-4.309806,5.639210,-1.449052,-1.336080,3.071162,-0.384192,1.942238,6.174714,-0.320719,0.436630,-3.537491,1.759095,4.205163,-2.075666,5.147966,-1.684511,2.464815,-1.276769,-6.529509,0.360764,-2.515809,3.499454,-0.764500,0.389278,0.384253,-0.797125,-1.258881,-3.990410,-4.295970,-2.225837,-1.599553,0.117825,-3.937580,0.821194,-4.736803,-5.911663,2.250779,1.736108,2.126322,-1.697064,-4.440037,-3.898919,-1.110992,-4.282575,-4.666855,1.784049,2.001639,0.996760,-3.608472,-0.455370,1.560672,-0.548581,-0.925719,-5.119251,-5.388332,8.138309,-4.906675,1.688590,-7.419252,1.822654,-0.994599,-1.620355,-1.578073,3.429751,0.585318,1.944349,6.783537,-5.499704,-6.014291,5.975436,-2.042944,-4.956530,5.010943,-2.324887,1.229347,5.785714,-0.632865,-8.511265,5.865246,-0.125587,-3.007957,-0.219058,-0.766192,-1.927425,2.828439,-1.365070,-2.664066,5.270014,1.396545,-2.584868
-2.082577,-1.036230,-3.051272,-0.255125,-1.408927,-1.795257,0.756888,-2.429770,-1.045126,-0.851970,-1.771424,2.555314,-1.834595,-2.181484,-0.390996,-2.526111,1.556931,2.529108,-0.964244,0.260203,-0.534889,-1.325295,0.706089,0.980584,4.279335,-1.184563,-0.943602,-1.265681,-3.274276,-1.875667,-0.753344,-0.421113,0.164540,-0.878856,2.201222,1.971627,0.679579,-2.615727,-3.081757,0.230216,-0.977262,-0.449819,-0.041252,-1.866419,-2.659991,-2.285167,0.113234,-0.891347,-0.818025,0.621805,-2.811005,0.018354,0.971448,-1.495508,-1.195885,-0.863929,1.579219,-2.678851,-1.789224,-1.073841,0.514398,-2.221106,-2.440396,-1.625251,-2.220750,4.652012,-1.853012,1.925115,-5.643251,1.660041,-3.505981,-1.559524,1.181534,0.900674,1.473170,3.193679,4.203596,-1.879883,-2.992404,3.556162,-0.706669,-3.927097,3.303924,-2.835059,1.132711,3.496529,1.185875,-4.081854,3.425343,-0.943736,-3.913112,-0.209199,1.820019,-1.439470,2.429413,0.419458,-1.762693,3.727411,0.769636,-2.344956
-1.440475,-0.999776,-3.637524,-0.296735,-0.730016,-1.101349,1.621843,-3.025277,0.060149,-1.996928,-2.719353,3.011381,-2.230053,-2.239621,0.185388,-2.521888,2.289945,2.863757,-0.610234,0.805876,-0.777812,-0.780236,1.637678,-0.073443,4.950175,-1.589859,-0.445946,-1.494440,-4.221669,-1.371708,-0.814055,0.316452,-0.565819,-1.055367,1.712779,1.599001,0.116021,-3.513417,-3.510911,-0.096769,-1.640104,-0.532928,-0.369001,-1.153747,-3.490211,-2.839475,0.607330,-0.987881,-0.277109,0.077259,-3.844891,-0.751930,0.204859,-2.055427,-2.042157,-0.366524,1.940975,-2.105596,-2.256080,-0.296355,0.715692,-2.323824,-2.596320,-2.549842,-3.101104,5.588223,-2.303401,1.830206,-6.528983,2.282951,-3.269750,-1.571027,0.932361,1.565413,1.241914,3.278383,4.829804,-2.866045,-4.329629,3.931284,-0.930746,-4.660010,3.900767,-3.290201,1.406525,4.498699,1.054136,-4.662365,3.859873,-0.806832,-3.848227,-0.615999,1.480208,-2.047386,2.556199,0.476044,-2.413050,4.268486,1.398410,-2.243971
2.536278,1.283368,-5.708433,-1.807694,2.162847,0.447629,4.728776,-5.942587,3.791392,-4.412965,-4.975881,7.480626,-0.461450,-1.097290,3.058656,0.588992,1.735165,6.341048,0.987058,0.330976,-4.561543,3.752838,6.060269,-3.823008,5.732092,-1.301082,2.790965,-0.441995,-8.786711,0.903947,-3.859792,5.257246,-2.074237,-0.411199,-0.295302,-2.249290,-2.025296,-6.571600,-3.900528,-1.039825,-2.439266,-0.426782,-3.232921,3.199108,-5.528870,-7.729314,0.567378,0.467442,2.968727,-1.266188,-5.889904,-4.504561,-2.959074,-4.437036,-6.184068,2.083195,3.043054,3.343895,-4.679101,0.200667,2.918864,-0.622944,-0.541915,-6.549101,-5.968095,11.669210,-4.451538,1.575537,-9.622942,2.613434,-0.088765,0.017665,-1.818148,4.229188,2.314349,0.259357,8.704544,-6.687200,-9.259579,5.879523,-1.482512,-5.741107,7.168710,-1.833362,-0.984447,6.236216,-1.952196,-8.390194,6.261807,-0.310998,-0.619821,1.113097,-3.035963,-3.353912,1.241824,-3.576432,-5.164177,6.519511,3.544828,-2.707246
2.523556,1.199715,-5.829584,-1.962036,1.541176,-0.775469,3.303746,-5.525175,2.376811,-4.776096,-5.312663,7.152190,-0.512404,-1.733531,3.718741,-0.020267,1.012634,6.793131,-0.267609,-0.338181,-4.950287,3.531138,4.449348,-1.446466,4.879378,-1.431506,2.919374,0.349880,-8.481237,0.310310,-3.195004,4.800257,-0.520359,0.037923,0.505184,-2.171502,-1.984313,-5.858835,-5.235987,-2.260241,-2.751745,-0.757036,-3.967914,2.472739,-5.824556,-8.888978,0.542385,0.743741,2.912965,-1.367534,-5.226077,-4.749636,-1.558462,-5.100892,-7.122087,1.064332,3.038139,1.765854,-4.857000,-0.286336,2.390230,-0.268943,-1.122968,-5.930237,-6.346557,12.109003,-5.160926,2.148268,-9.675095,1.941798,0.405590,-1.391429,-2.049223,4.160440,3.286750,0.329110,8.649623,-6.750001,-8.189785,7.182749,-1.269401,-4.220075,6.812950,-1.353447,-0.970128,5.851478,-1.794078,-10.573353,7.075668,-0.479868,-1.845124,2.145785,-2.253773,-2.479029,2.019281,-3.140917,-5.015837,6.198339,2.729412,-3.655521
3.735241,1.135252,-7.187577,-3.076343,2.855858,-0.310760,3.685122,-6.785488,3.145269,-6.629913,-6.976394,7.549909,-1.402691,-2.140080,5.578795,0.331855,1.054168,7.577787,-0.818508,0.130894,-5.432151,3.875741,5.246263,-1.931513,4.993920,-2.622512,4.293547,0.519542,-10.329798,0.298256,-2.819916,6.303194,-0.348989,-0.319942,0.703746,-2.907588,-2.666852,-6.895282,-6.603772,-3.607184,-3.846416,-1.343992,-5.004222,3.241597,-7.766196,-11.254950,0.768901,0.812398,4.562455,-2.221485,-6.218432,-6.741295,-2.338494,-6.867892,-9.565130,1.667876,3.330793,2.478399,-6.203157,0.784767,2.806328,-0.408377,-1.302745,-6.879261,-8.559544,14.000581,-5.890625,1.982782,-10.968830,2.394552,0.571076,-1.951167,-3.231564,6.001204,3.255607,0.243515,10.267596,-9.184669,-9.595710,8.174979,-1.786880,-4.704468,7.988760,-1.523024,-0.886936,7.169909,-2.227177,-13.185694,8.860704,-0.039760,-2.357527,1.973281,-2.820158,-3.456193,3.226668,-2.855327,-6.456893,6.889917,3.120204,-4.561645
0.470648,-0.008482,-5.158128,-1.806575,0.026132,-2.251022,0.097709,-4.197093,-0.966598,-3.975151,-4.444362,4.331752,-1.695476,-2.900504,3.049897,-1.671380,0.630521,5.917142,-2.878450,0.069790,-2.232463,-0.083448,1.615744,1.829219,3.697951,-1.575818,1.450490,0.567080,-7.243412,-1.706128,-1.580778,2.545056,1.363753,-0.147242,2.227488,-0.220929,-0.912380,-3.597038,-4.766087,-2.146771,-1.848849,-1.687485,-2.717321,-0.507563,-4.890351,-7.001243,0.421676,0.305007,2.272255,-0.877059,-2.801189,-3.015591,0.235775,-4.883381,-5.330993,-0.388660,2.144361,-0.950843,-4.240591,-1.179490,1.285573,-0.759807,-1.671202,-2.679687,-6.037161,9.034121,-4.131477,2.379648,-7.143979,1.178923,-1.850788,-1.947166,-0.810926,3.794827,3.119986,1.978860,7.021120,-5.887527,-4.969569,6.306544,-1.312849,-3.270372,6.177789,-1.422007,0.089583,4.492314,-0.541255,-9.431897,6.562669,-0.362834,-4.582919,0.974652,0.246774,-1.863183,3.984778,-0.381474,-3.980027,4.072813,0.701884,-4.078343
1.018972,0.257913,-6.510602,-1.869971,0.191288,-1.821655,1.234080,-5.470258,-0.480500,-4.391553,-4.470211,5.645127,-2.033832,-2.564159,3.438711,-0.727890,0.902735,7.248100,-2.842332,0.217678,-2.790258,0.021475,3.231976,0.309915,4.276058,-1.885346,2.091849,0.143221,-7.760167,-1.607670,-2.248826,3.422883,1.106490,0.122744,2.328237,-0.005471,-0.844483,-3.196838,-4.928452,-2.536529,-0.916091,-1.044366,-4.092647,-0.661352,-4.621872,-7.423890,1.476713,1.973790,2.642258,-1.735417,-3.335883,-4.110101,0.098751,-4.722184,-5.613786,0.891086,1.413872,0.216190,-4.584742,-1.895949,1.553016,-0.758343,-0.661643,-3.521663,-6.729921,9.364017,-5.141637,2.403892,-7.235848,0.553386,-2.421160,-1.930562,-1.604329,4.307138,1.928640,2.232976,8.017094,-6.672947,-5.272482,6.716349,-2.281961,-4.762846,6.549244,-1.715033,0.606449,5.237858,-0.678096,-10.284082,7.805419,0.356213,-4.930153,0.418411,-0.256283,-2.188971,4.719046,-0.754928,-3.421031,4.516884,-0.063739,-4.535501
0.262037,1.530441,-5.679624,-1.633893,-1.565381,-2.037354,0.828598,-4.517509,-1.274788,-1.138440,-2.496186,7.231858,-0.943782,-2.617117,0.396181,-0.488691,1.139060,6.904989,-2.000431,-0.772489,-2.300006,-0.276434,3.191826,0.656942,4.426673,-0.388311,0.082434,-0.945255,-6.793216,-2.191331,-3.709533,2.074346,0.851961,-0.045609,2.787578,1.890477,-0.661086,-1.950800,-2.554706,0.779127,0.341760,0.020132,-2.166841,-1.947148,-2.376806,-5.679155,0.419288,1.300879,0.718708,-1.980692,-1.868960,-1.146542,-0.224557,-1.595513,-3.383450,0.584066,0.352402,0.041707,-2.869639,-3.286217,2.952578,-0.817595,0.233257,-2.423433,-4.955204,9.034534,-5.060355,3.327559,-6.105014,0.211037,-3.671739,-0.923180,0.451342,1.824272,3.405499,1.037662,6.478790,-5.219064,-4.674437,5.862673,-2.671533,-4.945319,5.950954,-1.998514,0.184018,3.222903,0.094678,-6.455408,6.785362,-0.266511,-4.159793,1.340817,0.425015,-2.078062,2.887156,-2.109863,-2.750302,3.304900,-0.814878,-4.115242
-0.490852,1.810721,-4.656182,-1.465475,-2.178818,-2.178196,-0.141492,-3.629101,-2.004921,0.360230,-1.766853,6.842485,-1.066672,-2.979618,-1.140181,-0.949476,1.574784,5.866527,-1.951746,-0.554158,-1.135158,-1.346758,2.645440,1.155752,4.170312,0.023512,-1.281090,-1.218813,-6.204022,-2.650675,-3.749479,1.082751,0.389421,-0.659912,2.782226,2.692281,-0.368681,-1.398693,-1.159373,2.584168,0.558610,-0.334252,-0.354667,-2.846238,-1.351218,-3.910773,-0.311062,0.019890,-0.026026,-1.852284,-1.052092,0.796644,-0.317542,-0.182203,-2.084407,0.028045,-0.134742,-0.435997,-2.084693,-3.122863,3.316430,-1.106871,0.298063,-1.164196,-4.194483,7.891563,-4.248545,3.602587,-5.031404,0.422207,-4.475472,-0.313668,2.050608,0.628185,3.995344,0.603636,5.003535,-4.481468,-4.191998,4.735735,-2.465701,-4.730515,5.874151,-2.310268,0.289206,1.984018,0.626329,-3.740084,5.465122,-0.464441,-4.214869,1.387651,1.237236,-2.391684,2.187228,-1.676921,-2.905946,2.065935,-0.955833,-3.778223
2.571275,3.019654,-6.601099,-2.848765,1.780015,0.344910,2.612218,-6.386669,2.424561,-3.012733,-4.580471,9.008119,-1.677716,-2.260009,1.959522,1.253750,2.265986,8.046755,-0.687683,0.978074,-2.799457,0.541010,7.116085,-3.447768,5.562426,-0.756119,2.102720,-1.010453,-11.387570,-0.948641,-5.506494,5.891530,-2.133186,-1.014119,0.318538,-1.015893,-1.821758,-4.727695,-0.756189,1.718626,-0.925001,-1.440409,-2.046709,0.716682,-4.116017,-6.421086,0.594882,0.148646,4.137868,-2.878402,-3.351506,-2.574364,-4.271590,-3.700397,-5.024558,2.643833,1.004608,4.914914,-4.623395,-0.919961,5.212299,-0.420915,1.652164,-4.469789,-8.140909,11.355803,-4.982905,2.562933,-7.404543,2.127404,-2.948119,1.814656,0.171396,4.324149,3.018263,-0.769246,7.965463,-8.812456,-8.920525,5.087457,-3.086958,-6.708632,9.528964,-2.183849,-0.482853,4.678958,-1.557042,-5.664770,6.110546,0.076338,-2.242058,0.523895,-2.361603,-4.845995,2.210032,-2.619486,-5.938344,3.756975,1.877645,-3.298684
-0.446116,2.079894,-4.579604,-0.976487,-0.317264,-1.751143,1.069731,-4.638202,0.085791,-1.100393,-2.809718,7.322019,-0.729129,-2.409341,-0.704211,-0.843975,2.381009,6.921540,-0.835099,1.166761,-1.814474,-0.790414,5.066951,-1.774559,5.782532,0.560782,-0.485545,0.234019,-9.458089,-1.376551,-5.739858,3.464769,-2.472758,-0.779265,0.002432,-0.884799,-0.395831,-4.649661,-0.071350,3.087339,0.233667,-2.652796,0.078907,-0.036283,-1.975408,-2.908201,-0.276909,-1.168050,2.356385,-0.168208,-2.856339,0.463311,-1.991799,-2.349815,-1.771200,0.682108,2.019742,2.780707,-3.431073,-2.250048,3.337756,-0.441908,0.755547,-2.771053,-5.019124,9.525604,-2.833325,3.150722,-7.006184,1.643047,-3.052417,2.557587,2.076979,1.856112,3.792428,0.302067,6.410585,-4.950157,-7.660884,3.757295,-0.592539,-5.789447,9.230283,-1.753114,-1.093510,3.647508,-1.540731,-3.031243,3.279890,-0.624604,-2.486340,1.097771,-1.436235,-3.453243,0.953018,-1.957308,-4.998590,3.621016,2.126591,-2.674672
-0.900579,1.503114,-3.161062,-0.034571,-0.924432,-2.306098,0.130149,-3.413073,-1.027539,-1.780906,-2.606463,5.712246,0.338634,-2.099705,-0.634052,-1.627264,2.202401,6.134383,-1.439381,1.311238,-1.345182,-0.496821,3.558257,-0.769292,4.826079,1.419818,-1.374556,1.631860,-8.210011,-0.817789,-5.005546,2.526423,-2.132113,-0.130720,-0.551089,-1.333859,-0.796282,-4.261326,-0.156721,2.370167,0.561604,-3.050373,0.072029,0.453275,-0.971588,-2.174732,-0.338877,-0.903503,2.045462,0.355903,-2.116578,0.775045,-1.014031,-2.176459,-1.261235,0.091886,2.548798,2.034318,-3.171866,-2.375576,1.759491,0.311100,0.597807,-1.698710,-3.709156,8.197030,-2.074956,2.678500,-5.680659,0.967035,-1.707192,2.659858,2.095153,1.364345,4.027496,0.490472,5.420078,-3.595319,-6.564243,2.941328,0.417622,-4.157407,8.140583,-0.689671,-1.667128,2.965258,-2.073497,-2.442541,2.328039,-0.349751,-1.882055,1.113517,-1.414365,-2.263060,0.595645,-1.812382,-4.135016,2.798474,1.839229,-2.036763
-0.704620,1.264499,-2.276740,0.861291,-0.489704,-1.646309,0.468134,-2.877665,-0.555360,-2.367929,-2.290360,4.490335,0.748358,-1.285508,-0.599688,-1.455709,2.743123,5.232138,-1.051479,1.915825,-1.188011,-0.139192,3.718693,-1.898665,4.251256,1.506261,-1.649210,2.218871,-6.942030,0.174244,-4.541818,2.464449,-3.005383,0.125342,-1.732911,-2.058761,-0.924943,-4.017801,0.176248,1.759674,0.875068,-3.306787,-0.079366,1.395802,-0.103019,-0.730348,0.381842,-0.520948,2.291585,0.381564,-2.414473,0.555625,-0.863680,-1.664581,-0.830291,0.584075,2.590082,2.618975,-2.810054,-1.722246,0.530844,0.781978,0.969827,-1.595240,-2.721155,6.435841,-1.298647,2.004777,-4.404634,0.481200,-0.622173,3.009684,1.663686,1.017960,2.702785,0.422842,4.314009,-2.566248,-6.268957,1.552270,1.204689,-3.646003,7.061220,-0.200989,-1.508508,2.876754,-2.592989,-1.236552,1.096757,0.309958,-0.954798,0.622625,-1.984139,-1.786845,-0.066812,-1.361069,-3.263629,2.206590,1.749758,-1.129012
0.902682,1.944739,-2.490907,-0.363677,1.474247,0.183543,1.386799,-3.278205,1.617722,-1.477901,-1.925265,4.351311,-0.193800,-0.438120,0.110256,0.725063,1.914388,4.292886,0.287098,1.778240,-1.319904,0.090744,4.886853,-3.680350,3.206891,0.580243,0.490253,1.117006,-6.747302,0.369826,-4.279231,3.902744,-3.392498,-0.510175,-2.051770,-2.722689,-0.576095,-3.403484,1.405043,1.985165,0.446629,-2.604560,-0.139712,1.818716,-0.586418,-0.687296,0.298716,-0.423618,3.388129,-0.365523,-2.071015,-0.470938,-2.674239,-1.636749,-1.097578,1.821914,1.168456,4.782514,-2.434692,-0.419208,2.065752,0.573114,2.017648,-2.095634,-3.395448,5.141515,-0.906134,0.969195,-3.231432,0.918822,-0.460553,3.485035,0.770525,1.687122,1.122962,-1.022256,3.565039,-3.519059,-5.846811,0.585355,0.280854,-3.617487,6.382228,-0.228822,-1.283499,2.325015,-2.414395,-0.318733,0.522493,0.424525,0.344924,0.184632,-2.909849,-2.655341,-0.344513,-1.261884,-3.610363,1.531790,2.106773,-0.671956
7.304774,3.342418,-5.731655,-3.466895,7.542693,4.805156,5.167867,-7.058511,7.976231,-8.323413,-6.946883,6.989516,-0.320742,0.936039,7.655283,5.247284,1.060271,7.890780,0.411222,3.075696,-3.679216,4.205124,10.097945,-9.161839,3.028875,-0.830675,7.251905,1.083863,-13.336891,3.229800,-5.277620,11.051592,-4.484220,0.116412,-4.383168,-7.250815,-4.370296,-6.321513,0.844037,-2.061303,-1.671390,-1.979334,-5.286051,6.983732,-5.479258,-7.934302,2.313104,2.575927,9.655187,-3.692861,-3.622564,-8.133517,-8.562951,-7.938081,-7.608721,6.338463,1.923357,12.547998,-6.493910,2.609199,4.634613,2.448682,4.584928,-6.757769,-10.210396,9.789200,-3.802094,-1.491102,-4.572751,2.090130,2.646708,4.881271,-4.325165,8.980447,-0.816159,-3.131510,8.161904,-11.492647,-10.534595,2.262878,-2.900741,-5.274548,9.683573,1.113673,-2.115691,5.393542,-5.238577,-6.151947,4.235703,2.083751,3.258914,-1.738045,-8.058280,-5.373420,1.576449,-3.334510,-6.719184,2.941741,4.149601,-0.166520
19.984221,7.667797,-14.478071,-8.948189,17.787785,13.160577,16.591337,-16.543842,22.319105,-19.006948,-15.919144,18.305796,-0.386260,3.673400,19.523624,14.044658,1.234767,17.234407,4.786882,3.075900,-13.162280,15.366067,23.406790,-21.665554,6.936973,-4.145910,20.014809,-1.351094,-26.162037,9.226384,-10.373672,25.296505,-8.040792,1.184259,-8.665036,-15.443960,-10.649364,-14.139946,-3.182724,-8.349580,-6.421495,1.141707,-16.001406,17.062094,-15.698317,-23.302402,6.338132,8.410553,19.326954,-10.607386,-11.019946,-22.409523,-18.957319,-17.434660,-21.298830,15.335902,3.797328,26.415627,-13.693213,7.088311,11.385867,4.758440,8.614961,-20.407846,-22.369371,24.253277,-12.529908,-3.645460,-13.782999,5.388141,8.546983,5.508285,-13.883572,19.860134,-3.095194,-7.850516,19.596848,-26.130333,-23.476049,9.836361,-8.794121,-11.522317,16.514288,1.034484,-3.167526,14.029362,-10.168066,-20.549351,13.922217,3.916748,8.516888,-1.828092,-17.963264,-10.837650,2.696303,-10.801237,-13.270028,10.540839,9.369300,-1.240244
30.503439,9.508192,-19.657906,-13.122400,26.296701,22.436867,25.478661,-20.866234,36.438671,-30.438429,-24.625107,24.244747,-2.637148,5.002929,30.735659,18.458733,3.006788,22.797924,8.405318,3.273555,-19.636795,23.493982,30.844912,-29.114834,10.177008,-8.622682,31.476688,-6.928335,-33.444366,15.013152,-10.953865,34.391090,-9.660735,2.319291,-12.325935,-20.582130,-16.540247,-19.351913,-7.843441,-15.746776,-13.933464,5.326287,-25.120565,23.562927,-26.927502,-34.552731,11.971225,11.858757,26.024111,-17.833143,-15.972979,-33.181217,-27.568277,-27.312140,-31.728870,21.426550,5.800129,33.013454,-18.079966,14.176623,16.096851,6.059904,8.534165,-31.595671,-32.904819,31.740328,-20.360210,-6.035378,-19.991232,11.156034,13.860788,2.307463,-20.674387,28.434984,-6.859449,-9.694444,24.797039,-38.397915,-31.329872,17.442890,-15.110268,-14.259669,17.739933,-1.371825,0.477570,21.416998,-11.185267,-32.494518,20.035755,3.412955,10.371220,-4.349635,-21.667133,-13.722151,4.639236,-13.438554,-16.724142,16.010235,13.855185,-0.483209
34.406307,9.961939,-20.479012,-14.704541,27.697384,26.504385,28.793560,-20.556702,41.576988,-34.113132,-28.274647,26.627356,-3.456241,4.507009,33.061066,18.366262,5.647031,22.130157,10.350233,2.291386,-21.460409,27.890049,31.374651,-29.880161,11.564947,-10.946636,33.336700,-11.208658,-33.212597,17.331785,-8.720049,34.552315,-9.510653,1.770062,-12.080403,-18.567320,-20.378023,-20.749502,-11.314764,-17.815348,-19.045839,9.202765,-27.133322,24.790974,-31.712379,-39.591099,13.504179,11.174757,25.065504,-22.520821,-18.312635,-35.416805,-30.482084,-28.156071,-36.888214,22.624020,6.206535,30.943211,-18.203165,18.652786,18.007563,4.991510,5.912055,-35.380131,-35.569595,34.813717,-24.604008,-6.183299,-22.866394,14.634169,15.213579,-1.943235,-21.585220,29.248960,-6.406617,-10.394699,25.027742,-42.666771,-34.091099,21.487803,-18.615665,-14.514073,14.676454,-4.464183,3.265149,23.488020,-9.001740,-36.005043,23.616112,2.413620,10.584471,-4.521219,-19.756443,-14.528175,4.373193,-14.643396,-17.490662,17.448721,14.924598,-0.488059
24.296774,7.418499,-14.531812,-11.457501,19.246159,18.001936,17.502668,-14.224737,26.990456,-24.579987,-21.183105,18.356274,-3.120146,1.486137,23.364571,12.016818,4.565410,15.499766,4.681612,2.423555,-13.098769,17.825994,20.972385,-18.938391,7.084230,-7.903215,22.191046,-6.972353,-25.041595,10.785578,-5.291758,23.916155,-5.896857,0.364570,-7.321680,-11.759713,-15.518909,-13.955675,-7.384685,-11.848220,-13.896895,5.047525,-17.900682,16.312698,-22.329063,-28.824173,8.664820,6.514421,18.438494,-17.363327,-11.222332,-24.055445,-21.891233,-19.836998,-27.386112,15.272695,3.794080,20.975088,-13.549216,13.671043,13.283135,3.200463,4.357462,-22.515186,-26.938528,25.345064,-17.363958,-3.897200,-14.802546,10.069468,9.241371,-1.306680,-13.745715,21.307695,-2.554996,-7.896581,17.272671,-32.350430,-24.167625,14.878131,-13.778655,-9.605823,11.755728,-3.065033,2.091046,15.359782,-6.105823,-24.612381,17.571056,2.294524,5.991117,-3.333415,-12.818501,-11.168982,4.282463,-9.059064,-13.969148,9.638418,9.397623,-1.378928
13.039720,4.880388,-8.524563,-6.144150,9.013917,7.934933,6.772486,-7.993222,11.394586,-13.649707,-11.951008,10.804535,-1.661211,-0.449735,11.977568,5.654961,3.398342,10.275958,-0.248575,1.703702,-6.397217,8.077681,10.930134,-8.186151,3.297942,-3.791423,10.208920,-1.878317,-14.974959,4.769602,-3.405357,12.667989,-2.478211,0.278577,-3.309688,-5.493444,-9.017864,-6.261004,-3.853217,-6.044503,-6.427180,1.012775,-9.743144,7.373332,-10.713935,-15.939390,4.766344,3.717732,10.629539,-10.795634,-4.824339,-12.012381,-10.709729,-9.950603,-15.592782,7.838662,1.205870,10.764511,-7.993350,6.190065,7.020364,2.366692,3.296325,-10.105622,-15.762233,14.938214,-10.463045,-0.788995,-6.868492,3.920515,4.175953,-0.795196,-6.343682,11.001460,0.515488,-4.786393,9.387988,-18.809278,-13.095285,8.514927,-7.394654,-4.748901,8.005147,-0.973079,1.037892,7.548515,-3.799190,-13.598340,10.830606,2.161159,1.234051,-1.012358,-6.036925,-5.977974,3.299644,-4.234684,-8.142361,3.042351,2.968097,-2.510375
4.096926,1.840729,-4.076544,-2.881168,2.057998,1.547495,0.601931,-3.175683,1.773509,-4.332140,-5.067321,4.329401,-2.076822,-2.005897,3.130683,0.538403,2.462341,3.313593,-1.716829,0.614000,-1.456290,1.311597,2.725491,-0.622855,1.358240,-2.499319,1.832855,-0.934741,-5.487722,-0.060182,0.066754,3.181615,0.170436,-1.104002,1.036385,0.708543,-3.469795,-1.595095,-2.848050,-1.582226,-3.137424,-0.228033,-2.504662,0.413965,-4.244768,-6.765667,1.138333,-0.033015,2.933188,-5.363609,-1.853075,-3.285838,-2.787847,-2.277426,-7.151133,1.732279,-0.388155,0.895783,-3.070474,2.560483,2.999117,-0.648606,0.013888,-2.253487,-6.632045,6.790185,-4.734002,1.170548,-3.180122,1.432861,-0.674392,-2.307233,-0.806010,3.140784,1.999845,-1.439090,3.522755,-8.134211,-4.912592,4.317530,-3.231857,-1.932183,3.170103,-1.751390,1.353180,2.599882,0.059779,-5.603837,6.061206,0.957316,-2.288667,0.394435,0.287596,-2.812340,2.476162,-0.154135,-3.846692,0.085847,-0.247750,-3.016501
1.549324,1.029828,-2.605471,-1.999091,0.685513,0.415043,0.565252,-1.923004,1.011074,-1.879364,-3.702827,3.525351,-1.827840,-2.431212,0.398311,-1.210042,2.708099,1.141842,-0.446788,0.348984,-0.705861,0.900197,1.419303,0.325695,2.438323,-1.945939,-0.306930,-1.375737,-3.972759,-0.665774,0.312978,0.885374,-0.488636,-1.934481,1.415673,1.826246,-2.155976,-2.750213,-2.529275,0.562913,-3.587417,-0.369714,0.448180,-0.073616,-3.744362,-4.677772,-0.551920,-2.561450,0.549381,-2.901071,-2.550679,-0.571243,-1.894637,-0.752490,-4.926289,-0.061848,0.700085,-1.334479,-1.954247,2.493938,2.598905,-1.918260,-1.862321,-1.716388,-4.090429,6.435841,-2.847637,1.575734,-4.645312,2.555251,-1.657364,-1.966816,1.242096,1.179524,3.175303,-0.538526,2.762912,-5.298754,-4.877138,3.412204,-1.716639,-2.084280,2.741046,-2.777861,0.908267,2.238195,0.946003,-3.041735,4.149677,-0.491586,-1.971086,0.977796,1.375874,-2.813196,0.836668,-0.230021,-3.973297,1.204145,1.139476,-2.452696
2.967339,0.242338,-4.154314,-1.884520,3.525325,2.856425,4.590478,-4.320527,5.675883,-7.504977,-6.686818,4.836694,-0.952091,-1.075858,5.128399,-0.288928,2.419187,4.869307,0.284075,1.960884,-2.296994,3.349712,5.065380,-4.196896,5.265658,-1.422673,3.526388,-1.274189,-9.362790,1.864498,-2.125310,5.081607,-2.570927,-0.445360,-1.428370,-2.470266,-3.725147,-7.039607,-2.870630,-1.918228,-4.083469,-0.225237,-2.968091,4.003800,-7.025606,-7.252308,1.514364,-0.264204,3.905114,-1.848821,-4.754234,-4.778391,-5.154122,-6.688716,-6.132074,2.417949,4.000172,3.553221,-4.962852,2.697445,2.413512,-0.468199,-1.160307,-6.173180,-7.188720,9.195284,-3.643979,-0.254005,-7.712583,4.238853,0.336480,0.712609,-1.710895,6.293699,1.087498,1.168112,7.288405,-8.058001,-8.871507,4.462203,-2.471459,-5.066278,6.315124,-2.094666,-0.078432,6.290763,-1.550929,-6.779421,4.593826,-0.407170,-0.019666,-1.870275,-2.649579,-3.731184,2.011861,-1.930539,-5.189860,5.133744,4.470469,-0.393781
4.735275,0.799716,-5.686401,-1.952820,4.356437,3.425137,5.092041,-5.859954,6.021851,-9.709279,-7.759047,5.946414,-0.756180,-0.545702,6.996976,1.128193,2.636389,7.242679,-0.604695,2.454284,-3.359591,4.049103,6.832581,-5.744313,5.043390,-1.636350,4.872805,-0.317018,-10.731990,2.704010,-2.821829,7.038665,-2.688648,0.465245,-2.252533,-3.737110,-4.545643,-6.573087,-3.368139,-3.797397,-3.099942,-0.536385,-5.578454,4.852527,-6.894286,-8.684431,3.143272,2.310002,5.914199,-3.391246,-5.049536,-7.230417,-5.416893,-7.551934,-7.839507,4.206073,3.413364,5.732421,-6.056071,2.282799,2.160463,0.717173,0.512811,-6.912485,-8.771707,9.976027,-5.213443,-0.449774,-7.100910,2.971616,1.304779,0.795750,-3.476963,7.536747,-0.108546,0.746397,8.493771,-9.832849,-9.504425,5.181995,-3.103522,-5.585212,7.177551,-1.193838,0.125978,7.181847,-2.773444,-9.159857,6.295048,1.115612,-0.149058,-2.308914,-4.052885,-3.756771,3.179328,-2.177167,-4.906191,4.900584,3.447806,-1.010498
4.025572,-0.397918,-4.871581,-1.712663,3.935558,3.561480,3.910268,-4.350031,5.392339,-9.825521,-7.120580,3.465094,-1.959054,-0.663879,7.554479,0.355269,2.228700,6.268963,-1.493102,2.404427,-2.072378,2.160362,4.739878,-3.880913,4.074958,-2.283631,5.266470,-1.334758,-8.584864,2.074555,-1.034041,5.552526,-1.194984,0.889104,-1.522340,-2.791027,-3.714591,-4.566444,-3.395806,-4.969325,-3.059339,-0.022562,-5.808382,3.022105,-6.963941,-7.165349,4.205050,2.682784,5.397911,-3.397650,-3.493689,-6.845537,-4.276812,-8.188760,-6.361877,3.629225,2.675833,3.779442,-5.170959,2.367615,1.087951,0.624299,-0.120359,-5.730635,-8.488445,6.309302,-4.912560,-0.942336,-4.924517,2.781609,0.640737,-0.498756,-3.418452,7.486007,-1.875798,2.235106,6.491882,-8.931449,-6.280160,4.891271,-3.685548,-4.438999,5.044258,-1.514130,1.872090,6.559056,-1.500908,-9.032630,5.443198,0.793560,-1.852638,-3.731928,-2.198140,-2.631519,4.541140,-0.019362,-3.124167,3.796582,2.177829,-0.563582
2.642612,-0.016961,-4.146614,-2.409021,1.880760,2.129013,0.946813,-2.346373,3.000837,-5.988409,-5.019497,2.716136,-3.777686,-2.217363,5.185170,-0.702305,1.780863,5.252109,-2.223778,0.833408,-0.916707,-1.035598,1.835312,0.399156,2.927654,-2.780016,4.205993,-3.229408,-5.800780,-0.322235,-0.145242,2.898129,1.272177,0.304145,0.801935,0.288165,-1.796641,-1.081048,-2.864635,-3.521931,-2.874609,0.573067,-4.103247,-1.442473,-6.007594,-5.091978,3.649503,1.363469,3.243254,-3.858053,-0.696899,-3.489378,-2.261800,-6.351386,-4.190352,1.411279,0.467746,-0.150481,-2.950552,1.439389,2.195156,-0.289494,-0.972304,-3.179365,-7.797099,3.546729,-5.060226,0.691409,-3.069471,2.687388,-1.727199,-2.748929,-1.102843,4.865953,-1.101574,2.223363,3.154074,-7.637223,-2.497716,5.686855,-4.400900,-2.568293,2.907952,-2.826497,4.003419,4.084026,1.224306,-7.439632,4.668318,-0.593821,-5.093545,-2.634378,1.756214,-1.705824,4.954308,1.930086,-1.804545,1.728932,-0.110354,-1.678863
1.445269,-0.018589,-4.178928,-0.899390,-0.092736,0.089611,1.406485,-2.639349,1.274239,-4.757204,-4.000925,4.083678,-2.025994,-2.066202,3.117232,-1.480695,2.040425,5.639787,-1.604352,-0.033581,-2.444241,0.368109,1.679407,0.868423,3.769244,-1.885367,2.092916,-1.862987,-4.607730,-0.094556,-1.060108,1.779114,0.982006,0.781188,1.078874,0.536372,-1.455001,-1.696367,-4.384252,-2.966988,-2.064446,0.389097,-3.907536,-1.083092,-4.491502,-5.035483,2.910667,1.572973,1.390729,-2.742285,-2.237958,-2.598535,-0.144828,-4.232804,-4.012636,0.609346,1.243930,-1.571693,-2.597671,-0.180200,1.067471,-0.284529,-1.508440,-3.513150,-5.373365,5.635536,-5.234305,1.909757,-5.086559,1.690294,-1.056783,-3.281680,-0.735010,2.586436,0.564731,2.247988,4.142100,-5.262724,-3.315140,6.384580,-2.625637,-2.746746,2.834294,-2.426789,2.792126,4.337183,0.702628,-8.068793,5.260408,-0.651017,-4.625946,-0.426872,1.584532,-0.622533,3.497078,0.290765,-1.365747,3.210750,-0.128828,-2.582981
0.893229,-0.334450,-4.853510,-1.277833,0.661241,-0.068323,3.215292,-3.984895,2.408497,-3.754713,-3.932708,4.819618,-1.836146,-1.668051,2.871037,-1.055541,1.261873,4.920999,0.008945,-0.248804,-3.281509,1.548999,2.868575,-0.705104,4.995154,-2.121511,2.562407,-2.066177,-5.459970,-0.240745,-1.549450,2.511153,0.081217,-0.033799,1.224779,-0.132161,-0.657684,-4.062191,-4.936018,-2.214900,-2.552418,0.551035,-3.199492,0.283977,-5.575304,-5.994073,1.514121,0.645359,1.094113,-0.901620,-4.396159,-3.380408,-0.729808,-4.361499,-4.354280,0.594984,2.252902,-0.655213,-3.172809,-0.038107,1.636406,-1.279748,-2.199495,-5.017111,-4.910508,7.704845,-4.364664,1.662246,-7.999111,2.559983,-1.291442,-2.435017,-1.347269,3.127151,0.944372,2.399086,6.333938,-4.871945,-5.246689,6.289492,-1.941550,-4.361712,4.047646,-2.843300,1.400228,5.514704,0.348493,-8.672486,5.614003,-1.122700,-3.243205,0.097271,0.194368,-1.717883,2.762694,-1.082229,-2.728153,5.805820,1.957205,-2.610749
-1.828754,-1.666921,-2.831916,0.277058,-1.018819,-0.381695,2.282366,-2.046239,1.015652,-2.605780,-2.558846,2.304510,-1.980913,-1.845334,0.621416,-3.041720,2.249922,2.666931,-0.126351,0.574646,-0.848790,-0.499364,0.994755,-0.020060,5.281955,-1.364896,-0.083157,-2.488809,-3.162911,-0.668097,-0.486278,-0.367808,-0.414332,-0.362381,1.246364,1.527215,0.148708,-3.354507,-3.529811,-0.700625,-1.856601,0.449627,-0.868348,-1.171978,-3.866044,-2.043795,1.463063,-0.519811,-0.962786,0.450674,-3.533826,-0.597783,0.287695,-2.750031,-0.997142,-0.379587,2.516959,-2.800554,-1.731708,-0.249465,0.062311,-2.129925,-3.182808,-3.058607,-2.419341,3.988966,-2.373136,1.424703,-6.201102,2.729189,-2.756462,-1.848365,0.708479,1.411922,0.226693,4.148221,4.009834,-1.905578,-3.343026,4.099814,-1.242343,-4.334216,2.549265,-3.521111,2.203940,4.707635,1.487867,-4.594817,2.960268,-1.380530,-3.770867,-1.530585,1.978109,-1.165460,2.505141,0.538826,-1.144304,4.773291,1.727142,-1.136068
-0.187809,-0.784751,-3.968574,-0.697439,0.014067,0.288768,2.784468,-3.194414,1.867976,-3.279700,-3.501102,3.708407,-2.236797,-1.781429,1.569499,-1.862391,2.386257,3.480889,-0.037017,0.559759,-1.585468,0.378782,2.244899,-0.834024,5.180564,-1.964082,0.990089,-2.544345,-4.421578,-0.380278,-0.803904,1.079318,-0.503125,-0.514075,1.284202,1.250719,-0.656332,-3.566605,-3.912472,-1.122956,-2.313232,0.586550,-1.813373,-0.555005,-4.587676,-3.979923,1.579179,-0.125795,0.197163,-0.968713,-4.056883,-1.890232,-0.709952,-3.058216,-2.940732,0.495335,1.972155,-1.493740,-2.465484,0.315005,1.150385,-2.008614,-2.500704,-3.890867,-3.958613,5.732922,-3.478323,1.479030,-6.703984,2.731404,-2.539328,-2.157488,-0.074845,2.286700,0.501606,3.107478,4.954999,-4.013192,-4.549012,4.925391,-2.027779,-4.696323,3.261935,-3.573158,2.183690,5.081480,1.123329,-5.925935,4.479764,-0.925682,-3.520753,-1.049675,1.266857,-1.971031,2.775611,-0.067758,-2.110785,4.726712,1.631295,-1.855042
2.855852,1.749690,-5.004351,-1.139038,1.513979,0.127677,3.962082,-5.257732,2.711897,-3.857354,-4.003186,7.208720,0.546056,-0.540338,2.573262,1.157894,1.367890,6.198975,0.673027,0.012872,-4.645846,3.980945,5.572230,-3.564687,4.355807,-0.535673,2.190828,0.519867,-7.306594,1.199965,-4.009360,4.906992,-1.782080,0.260700,-0.649583,-2.423840,-2.173660,-5.022062,-3.328233,-1.143729,-1.176882,-0.422283,-3.623622,3.176638,-3.642479,-6.905304,0.730594,1.554846,2.745508,-1.664717,-4.821720,-4.182180,-2.127034,-3.052524,-5.686705,2.323510,2.208165,3.681537,-3.919835,-0.582993,2.283367,0.355218,0.516536,-5.561751,-4.715096,10.458892,-4.440228,1.657758,-7.708883,1.060077,0.914566,0.178199,-2.042065,3.065878,2.284672,-0.617583,7.486888,-5.431245,-7.855277,5.097159,-1.052551,-4.488157,6.050220,-0.681748,-1.310119,4.969557,-2.420150,-7.516292,5.761533,0.423227,0.011528,1.755763,-3.283468,-2.320071,0.605175,-3.897326,-3.916892,5.145585,2.203696,-2.561810
4.017313,1.831018,-4.993995,-2.221667,2.828444,0.486726,3.542455,-4.917181,3.697407,-4.410040,-4.638626,6.422579,-0.243896,-0.689342,4.130210,1.584318,0.525325,5.879537,0.657298,-0.339962,-5.180480,4.165909,4.927401,-2.699694,3.242617,-1.466006,4.039114,0.384404,-7.311734,1.288277,-3.089325,5.643147,-0.878717,0.245392,-0.667236,-3.475336,-2.051994,-4.939191,-4.150455,-2.557699,-2.555618,-0.531043,-4.273131,3.462477,-5.215997,-7.982185,0.805932,1.089716,3.862811,-2.009808,-4.542183,-5.193731,-2.364489,-4.733544,-6.963915,1.941792,2.126938,3.498383,-4.187694,0.691165,2.688551,0.579569,0.072321,-5.870453,-5.934525,10.278697,-4.617702,1.303968,-7.700308,1.580482,1.927384,-0.923036,-2.846170,3.976237,2.082052,-1.254156,6.943265,-6.502503,-7.430179,5.832915,-1.095624,-2.972548,5.512346,-0.522650,-0.987579,4.832670,-2.373048,-9.199980,5.683071,-0.046852,-0.190601,2.240336,-3.259470,-2.279042,0.897795,-3.227334,-4.568031,5.004131,2.697222,-2.835449
4.555208,1.109423,-6.272270,-3.342502,4.294621,0.494503,2.572610,-6.037347,3.504260,-6.444966,-6.523474,5.131213,-2.594604,-1.564829,6.046304,1.225592,0.837524,5.819367,-0.888367,0.687868,-4.610167,2.592399,4.696780,-2.055429,2.870459,-3.478246,5.234245,0.732330,-8.699330,0.379220,-1.186885,6.584295,-0.229419,-0.630619,0.126205,-3.641260,-2.005677,-5.149100,-5.715672,-4.461447,-4.022727,-2.033985,-4.861248,3.031956,-7.242475,-9.479632,1.328684,0.670486,5.713545,-2.735920,-5.209933,-6.994784,-2.329009,-6.837313,-9.243424,1.867489,2.022128,2.908008,-5.614893,2.333161,2.481368,-0.261068,-0.731831,-5.635686,-8.502750,10.551085,-4.775087,1.079712,-8.176803,2.124128,1.167650,-2.229715,-3.553518,5.983264,1.283278,-0.380206,7.772692,-8.976176,-7.668885,6.458427,-1.414833,-3.012976,6.491456,-1.126929,0.102047,6.162319,-2.099553,-11.788237,7.141640,0.600265,-2.263089,1.343670,-2.600915,-3.250607,3.350594,-0.795780,-5.890486,4.745442,2.469421,-4.097475
3.981802,0.808228,-6.375371,-3.282197,3.519651,0.069360,2.224103,-5.902600,2.728619,-6.914577,-6.915924,5.261341,-2.353020,-2.189072,6.203928,0.362180,0.795382,6.475280,-1.789855,0.620869,-4.124897,2.389895,4.100774,-1.062280,3.336639,-3.155149,4.764181,0.661930,-9.363373,-0.026495,-1.321366,6.044230,0.348856,-0.480888,0.703132,-2.916995,-2.406955,-5.357962,-5.923168,-4.404762,-3.957611,-1.794518,-4.833243,2.487869,-7.575314,-10.144811,1.235153,0.663492,5.281289,-2.625403,-4.732489,-6.702611,-2.189409,-7.264040,-9.200892,1.515507,2.470008,2.113190,-5.898488,1.712960,2.401140,-0.270602,-1.141312,-5.440750,-8.871964,11.241921,-5.169145,1.280229,-8.388415,2.225611,0.550091,-2.254079,-3.160630,6.407125,2.036390,0.346506,8.361335,-9.387607,-7.671526,7.054853,-1.918535,-3.288592,6.940018,-1.274989,0.085316,6.219027,-1.770706,-12.288627,7.861464,0.306731,-3.015316,0.998357,-2.075099,-3.153674,4.022205,-0.914711,-5.917530,4.935059,2.319419,-4.213995
5.353524,1.421205,-8.702380,-3.398226,4.063896,1.190863,5.075671,-8.204364,4.753461,-7.640773,-7.241726,8.241788,-2.359234,-1.288561,7.035373,2.094052,1.143165,8.877634,-0.565645,0.353387,-6.164118,3.966948,7.194921,-4.089293,5.106972,-3.499771,6.255982,-0.494660,-10.608390,0.810508,-2.952725,7.949222,-0.564622,0.113756,0.429983,-3.278513,-2.603225,-5.946559,-6.650438,-5.011645,-3.163845,-0.428629,-7.214044,3.173207,-8.078427,-11.734262,2.670797,3.085925,5.805756,-3.598032,-6.510349,-8.887552,-2.985467,-7.428545,-10.229481,3.647562,2.085849,4.367384,-6.512660,0.851144,3.326059,-0.215895,0.004080,-8.004246,-9.939103,13.159925,-7.227724,1.448413,-10.267151,1.954549,0.433950,-2.328984,-4.835318,7.261668,0.616236,0.450618,10.738743,-10.603705,-9.406314,8.502793,-3.204200,-5.984006,7.756953,-1.770407,0.563114,8.197808,-2.309956,-14.608426,9.968037,0.942947,-2.699719,0.677010,-3.460060,-3.734223,4.479248,-2.500802,-5.535440,7.018309,2.201998,-4.700576
2.593193,1.452140,-6.407042,-2.448299,1.037256,-0.256125,3.318038,-5.485678,2.160585,-3.342762,-4.266817,7.538725,-1.237829,-1.711588,3.097901,0.703696,0.784801,6.758448,-0.261940,-0.862007,-4.423563,2.466761,4.590491,-1.422548,4.648077,-1.754442,3.068246,-1.394770,-7.367349,-0.445443,-3.073359,4.249218,0.344573,0.007149,1.654194,-0.284973,-1.472100,-3.941399,-4.526975,-1.600565,-1.890011,0.692908,-4.064791,0.647262,-5.245881,-8.396514,0.939284,1.582495,2.136531,-2.377056,-4.072661,-4.361359,-1.645223,-3.819119,-6.250257,1.567902,1.341164,1.504288,-3.897764,-1.004184,3.344394,-0.737598,-0.530067,-5.402281,-6.302223,10.650826,-5.790480,2.337527,-8.303073,1.501520,-1.325467,-1.901208,-2.032775,3.693119,2.266427,0.457823,7.876830,-6.806141,-6.507857,7.177288,-2.826369,-4.908844,5.652002,-2.051516,0.255913,5.133420,-0.529835,-9.806498,7.725809,-0.356699,-2.670532,1.471430,-1.140525,-2.527397,2.720748,-2.936146,-3.835047,5.486318,1.136305,-3.846244
3.039567,2.109940,-6.382264,-3.370800,1.902777,0.981239,3.409710,-5.562579,3.519586,-2.510819,-4.027587,7.921274,-2.091859,-1.877459,3.077742,1.562418,0.766794,6.728180,0.258838,-0.684371,-3.597631,1.524575,5.429739,-2.194154,4.658039,-1.946375,3.874331,-2.828396,-8.407076,-0.835891,-3.727776,4.981628,-0.188690,-0.590227,1.428917,-0.241451,-1.287150,-3.740585,-2.581517,-0.243425,-2.035890,0.850684,-3.222790,0.227764,-5.587815,-7.615007,0.857917,0.869291,2.785758,-2.787482,-3.263642,-3.781688,-3.482445,-4.164865,-5.426030,2.096982,0.660823,2.857366,-3.659652,-0.402591,5.032585,-0.898040,0.323526,-5.420269,-7.388731,9.963753,-5.527356,2.034658,-7.528669,2.443940,-2.286855,-0.822747,-1.266415,4.187971,1.785629,-0.244766,7.231775,-7.966992,-6.621410,6.458794,-3.941311,-5.471115,6.235843,-2.704994,0.744557,4.572227,-0.106998,-7.866609,6.817178,-0.738413,-2.520460,0.671325,-1.235443,-3.707248,2.538569,-2.561332,-4.464907,4.823701,1.592862,-3.251763
2.999993,2.242036,-6.634797,-3.405033,2.520702,0.844420,3.282813,-6.031888,3.644177,-3.078914,-4.435860,7.983932,-2.300473,-1.950438,3.444474,1.672156,0.803618,7.473669,0.012276,-0.054565,-3.635371,1.200751,6.104169,-2.732837,5.026108,-1.776135,4.226923,-2.084989,-9.826229,-0.758073,-4.362224,5.851150,-0.738727,-0.611409,0.869678,-1.339239,-1.131926,-4.460172,-2.198865,-0.154988,-1.854699,-0.142862,-3.202917,0.720514,-5.740263,-7.533855,0.931158,0.730318,3.884574,-2.400303,-3.390259,-4.009134,-3.825464,-5.097779,-5.420856,2.230757,1.086174,3.972307,-4.374219,-0.438294,5.134970,-0.663107,0.637167,-5.514146,-8.156628,10.474832,-5.207195,2.014282,-7.831851,2.582977,-2.212491,0.111013,-1.306847,4.985854,1.822690,-0.271922,7.801335,-8.548989,-7.438266,6.236348,-3.477104,-5.791190,7.676776,-2.341805,0.243221,5.017133,-0.756560,-8.013393,6.483427,-0.710792,-2.423074,0.570883,-2.019413,-4.107244,2.691751,-2.420527,-5.166649,4.990343,2.119669,-3.200936
-0.246354,1.286911,-5.197630,-1.681858,0.475846,-1.806244,1.049008,-5.162891,-0.009602,-1.745929,-3.378109,6.079226,-1.699038,-2.562524,0.566437,-0.787238,1.630584,5.998257,-1.281061,1.087703,-1.750991,-0.960331,4.426305,-1.232713,5.186943,-0.621722,0.379608,0.315960,-9.078856,-1.882482,-4.079605,3.550442,-1.524522,-1.175184,1.019532,-0.734278,-0.112428,-4.803909,-1.583769,1.553749,-0.655189,-2.590030,-0.448977,-0.054377,-3.281453,-4.393640,-0.413192,-1.115396,2.674293,-0.025574,-3.406018,-1.071550,-1.612431,-3.211813,-3.168890,0.428436,1.927839,2.030318,-3.995303,-1.459618,3.015439,-1.197957,-0.109027,-2.841108,-5.627367,9.496631,-2.753535,2.615155,-7.404980,1.751195,-3.326493,1.303832,1.032265,2.985902,3.239181,0.920636,7.073313,-5.628963,-7.114510,4.130030,-0.841011,-5.575826,8.676054,-1.958092,-0.796091,4.237592,-1.148531,-4.976853,4.540988,-0.404135,-3.056145,0.815152,-1.220968,-3.741822,2.248944,-1.136835,-5.317791,4.085808,2.104845,-3.358770
-0.147304,1.702503,-4.388001,-0.929334,-0.030733,-2.050147,0.094701,-4.375773,-0.595673,-2.449328,-3.298946,6.088376,-0.848113,-2.497375,0.373242,-1.123024,2.155132,7.060423,-1.895476,1.520534,-1.583565,-1.136842,4.324201,-0.968217,4.774993,0.421101,-0.244051,1.342101,-9.444871,-1.296711,-5.019576,3.670787,-1.966896,-0.411613,-0.222937,-1.632692,-0.626020,-4.224152,-0.486503,1.731093,0.172110,-3.501885,-0.584789,0.193359,-2.005549,-3.136109,0.127572,-0.648003,3.238304,-0.397967,-2.379057,-0.278652,-1.383718,-3.228193,-2.272552,0.502536,2.064547,2.731130,-3.894802,-1.978837,2.429832,0.165010,0.822585,-2.007576,-5.466792,8.785639,-2.750432,2.766101,-6.045503,1.106428,-2.285112,2.265743,1.598257,2.490634,3.501364,0.421119,6.001711,-5.329976,-6.989046,3.547428,-0.279604,-4.692690,9.061365,-1.041485,-1.104972,3.561800,-2.047962,-3.875488,3.275395,-0.103327,-2.845864,0.836389,-1.547329,-2.993741,1.684926,-1.020936,-4.898516,2.806632,1.594079,-2.804879
-1.228944,1.176824,-3.090059,0.216813,-0.728363,-2.052161,-1.317951,-3.015862,-1.786962,-2.360585,-2.230043,3.956017,-1.066756,-2.265860,-0.188715,-1.742769,2.510388,6.580700,-2.862874,2.379883,0.055849,-3.165747,3.150073,-0.400343,3.963142,0.994063,-1.085215,1.575317,-7.894860,-1.326175,-4.551073,2.426782,-1.874914,0.176632,-0.838094,-1.316642,0.029256,-2.233507,0.959183,1.642981,1.613570,-3.892071,-0.262641,-1.067548,-0.179069,0.065435,1.257070,-0.071794,3.118468,-0.128637,-0.594276,1.075836,-0.518246,-2.738466,0.220203,0.439234,1.408238,2.195276,-2.901862,-2.511334,1.020335,0.759254,1.429807,-0.228265,-4.468003,4.806151,-1.742869,2.357040,-2.866994,0.228027,-2.629539,2.851388,2.314817,1.722757,1.944701,1.361035,3.694901,-3.694016,-4.523998,1.906583,0.062260,-3.814710,7.889202,-0.550774,-0.024937,2.477319,-1.779927,-1.484537,1.200530,0.334625,-3.681058,-0.637946,-0.574510,-1.953889,2.129102,0.788902,-2.981801,0.858219,0.269806,-1.743983
1.487370,1.793424,-2.909941,-1.261559,2.221356,1.036522,-0.257004,-3.053009,1.327128,-3.269636,-3.077397,3.172046,-1.929585,-1.276634,1.824794,0.574061,2.201579,5.103909,-1.924005,2.791776,0.456298,-2.353548,4.373582,-2.645127,2.377858,-0.148375,1.549291,0.446354,-7.999892,-0.307265,-3.409472,4.280202,-2.381815,-0.399288,-1.672182,-2.167984,-1.073916,-1.900812,2.311406,0.997187,0.291003,-3.113715,-0.728041,0.315667,-1.334525,-0.758547,1.726930,0.024128,4.999960,-1.935774,-0.083395,-0.778241,-3.462772,-3.575089,-1.232167,2.167110,0.254337,4.945074,-3.037335,0.155794,2.436683,0.834768,2.581747,-0.769058,-6.078271,3.280813,-1.551741,0.598339,-0.919849,1.001640,-1.728224,3.293931,0.943749,3.617484,-0.043053,-0.364126,2.669087,-5.966649,-4.439998,0.566722,-1.452597,-3.352843,6.790808,-0.462644,0.445469,2.110214,-1.786710,-0.465020,0.812937,0.826755,-1.735851,-1.901280,-1.729651,-3.173955,2.113363,1.116279,-3.554442,-0.488202,0.788068,-0.651514
5.860650,3.061830,-4.624964,-3.959919,6.340729,3.688903,2.271433,-5.265971,5.735749,-6.193495,-5.978075,5.085668,-2.060627,-0.546381,6.085454,3.669427,1.104152,6.139405,-0.758242,2.764945,-1.755723,1.123136,7.296916,-5.542656,1.917782,-1.521693,6.029229,0.246310,-11.637394,1.211803,-3.627772,8.758543,-2.786628,-0.734722,-2.751613,-5.114188,-3.153308,-4.274517,1.337903,-1.038647,-2.163500,-2.574685,-3.181016,3.904361,-5.108352,-6.128148,1.649476,0.520987,8.424718,-3.760803,-1.600179,-5.375269,-7.233177,-7.031502,-6.210013,4.240791,0.784393,9.162554,-5.246212,2.864236,4.887070,1.443305,3.494293,-4.097722,-9.999758,7.379344,-3.082597,-0.736600,-2.880487,2.383743,0.662266,3.512577,-2.178229,7.545362,-0.090250,-2.811219,5.439576,-10.857241,-7.795470,2.011081,-3.020702,-3.578113,8.389024,0.121433,-0.730477,3.625374,-3.272989,-4.364496,3.217790,1.214113,0.713978,-1.569279,-4.977795,-5.156867,2.149187,-0.870337,-6.462112,0.805878,2.888575,-0.786035
15.139915,4.868456,-11.411299,-8.341715,15.356698,10.833135,13.586915,-13.185528,18.958733,-15.312707,-13.729784,13.061711,-1.711792,2.106698,16.420729,10.143817,0.340700,11.779151,4.317811,2.713961,-9.596138,11.861469,17.670763,-16.590307,6.241178,-4.508041,16.843338,-2.188985,-21.750570,6.543552,-6.734842,20.016562,-6.158178,-0.442104,-5.954236,-12.102169,-8.133054,-13.529859,-3.318237,-6.609193,-7.630296,0.775193,-11.192622,13.821122,-15.551373,-19.796854,3.594327,4.085943,15.175377,-6.893274,-9.819106,-18.138124,-16.229843,-15.846285,-17.599365,11.043923,4.499661,19.769913,-11.629900,7.582132,9.658950,2.100671,4.435485,-16.811516,-18.703447,20.143814,-8.714048,-3.507512,-13.291684,6.865501,5.769031,4.076504,-10.792565,17.464273,-1.992811,-5.125900,16.598476,-21.727472,-19.490847,8.053097,-7.123637,-9.579267,13.635736,-0.489015,-2.667562,12.127704,-7.104056,-16.924591,10.932595,1.750884,6.621638,-2.237417,-13.807407,-9.978867,2.734475,-7.818915,-12.402075,10.095735,9.771609,-0.695265
20.484028,4.102785,-12.653690,-9.822805,19.091509,16.492607,19.735291,-13.637444,27.643776,-22.861219,-18.775017,14.938722,-1.613801,3.186713,23.308407,11.216922,1.003386,13.077806,7.266055,1.760538,-13.539923,18.833059,19.313253,-19.415968,8.111746,-6.939411,22.983892,-6.408578,-22.663204,11.109189,-4.998322,22.785345,-5.919300,1.025236,-7.528438,-13.891790,-12.331903,-16.799370,-8.218681,-12.510729,-13.380933,5.582932,-16.889561,18.180483,-22.966389,-27.074135,6.903753,6.177353,16.258223,-10.310045,-13.206555,-24.487862,-20.064430,-21.587627,-23.699982,13.478210,7.146306,20.110069,-13.216213,12.194850,10.593581,2.559487,1.804965,-24.071678,-22.534647,23.469872,-13.389434,-5.591331,-17.470695,10.833808,10.277061,0.116661,-15.319283,21.735306,-4.103481,-4.674393,18.937071,-26.474953,-22.779922,13.334488,-10.748199,-9.831549,10.807438,-2.243304,-0.250705,16.645662,-6.535393,-25.006029,14.589805,0.534241,8.408870,-3.804716,-14.676567,-9.771716,3.326790,-10.039768,-12.539816,14.618376,12.856348,0.857788
20.431931,3.822167,-11.261202,-9.890306,17.355164,16.929358,17.600031,-11.134608,26.106548,-23.949827,-19.814232,13.814388,-1.711256,1.792208,22.943314,9.063044,2.606113,11.593664,5.295758,1.645856,-11.462181,18.282730,16.358635,-16.103697,7.093990,-7.058777,20.868668,-7.420767,-20.936300,10.720345,-2.556855,19.768637,-4.331588,0.872239,-6.269453,-10.459949,-14.446367,-14.893566,-8.682658,-12.583475,-14.729630,6.687580,-16.185711,16.260290,-23.052238,-27.518242,7.120408,5.272203,14.494106,-12.942505,-11.111313,-22.700649,-19.807236,-20.333551,-24.427423,12.341708,6.539666,16.336811,-12.248310,13.457359,10.204477,2.212386,0.524818,-21.966858,-22.644747,22.250353,-14.567734,-5.331471,-15.323575,11.229185,9.609353,-2.106705,-13.715257,20.686108,-2.650593,-4.457843,16.553139,-27.389849,-21.072172,13.926489,-12.329853,-8.045630,8.246595,-3.124981,1.365764,15.046488,-4.648576,-23.847826,15.384027,0.372366,6.864542,-4.500291,-11.280548,-9.053761,3.982699,-8.897621,-11.811023,11.778768,11.018353,0.811900
10.936615,2.530816,-7.141338,-5.588118,7.751265,7.568016,7.316442,-6.244159,11.260110,-13.711651,-11.572130,8.605869,-1.091641,-0.537591,12.231314,3.901371,2.006799,8.264985,0.083798,0.699928,-5.752203,8.692961,7.985740,-6.179420,3.640581,-3.585476,9.905410,-3.260962,-12.492912,4.537154,-1.552008,9.977114,-0.764305,0.681155,-1.827984,-3.913292,-8.658906,-6.763793,-5.460926,-6.927995,-7.349741,3.053415,-9.411930,6.895267,-12.003499,-16.404888,4.010215,3.420125,7.781396,-8.680988,-4.744421,-11.774060,-9.564630,-10.659159,-14.456157,6.160602,2.879691,7.200083,-7.235885,5.833480,5.548414,1.444857,0.473937,-10.376171,-13.707709,13.817852,-9.702988,-1.483695,-7.872391,4.950713,3.980859,-2.183483,-6.615194,11.116909,0.456212,-2.280770,9.510319,-16.416496,-11.128098,9.189435,-7.517538,-4.203593,5.517655,-1.694543,1.100573,7.745005,-2.235567,-14.519064,10.661359,0.764074,1.163518,-1.853508,-4.592692,-4.746218,3.705498,-4.469007,-6.613071,4.982263,3.723900,-1.346806
6.804188,2.887985,-5.467947,-3.506986,3.293463,3.377151,2.095841,-4.124061,4.298804,-6.865319,-6.204643,6.504449,-1.947703,-1.331859,5.809904,2.373415,2.376038,6.612235,-1.593087,0.304073,-3.210027,2.715024,4.830186,-2.096240,1.627333,-2.564287,4.810299,-1.871220,-7.420722,1.307131,-1.449309,5.650240,0.310817,0.302220,-0.116496,-0.768871,-4.582304,-1.162731,-2.843832,-3.452376,-3.024827,0.952699,-5.791952,1.232471,-5.355134,-8.723225,3.377212,2.625954,4.973436,-7.444351,-1.465797,-5.667242,-4.361126,-4.536287,-8.492860,3.760482,-0.763373,3.542089,-3.810839,2.245303,4.063671,1.009977,1.690541,-4.329313,-9.152753,7.705244,-7.373483,0.915368,-2.991663,1.358059,0.672591,-2.449562,-2.665216,4.917388,0.661633,-2.108000,4.354141,-10.711580,-5.534622,6.191753,-5.162255,-2.425968,3.660335,-1.372356,2.295069,3.511900,-0.651049,-8.419131,7.458515,1.238212,-2.199328,-0.239112,-0.890987,-2.708236,3.214699,-1.238889,-3.487817,0.560840,-0.691721,-2.812553
4.554348,2.833398,-4.485759,-4.237996,2.556298,1.263618,-0.832903,-3.118713,1.474124,-2.636392,-4.352466,4.631456,-3.304983,-2.671282,3.132830,1.410280,1.391575,3.945975,-2.073456,-0.015937,-1.364292,-0.498150,2.613486,0.725994,0.313456,-2.889852,3.035697,-1.436944,-6.202809,-1.320125,-0.483793,3.916310,1.175448,-1.438100,1.660717,0.559874,-2.322533,-0.328860,-1.656417,-0.919460,-2.960675,-0.740131,-2.039680,-1.050554,-4.391340,-6.485927,0.764572,-0.564741,3.975098,-5.642785,-0.095725,-2.636147,-3.024784,-2.870269,-6.583922,1.357522,-1.701220,1.387873,-2.795295,2.238519,4.725525,-0.422138,0.839730,-1.429650,-8.038764,6.348495,-4.794804,1.635778,-2.278236,1.392904,-1.572005,-2.181362,-0.227152,3.273788,2.116354,-2.460467,2.510360,-9.016148,-3.704280,4.560083,-3.725881,-1.115982,3.849316,-1.717790,1.799273,1.370118,0.422182,-5.425846,5.630893,0.342759,-3.383376,1.050719,0.803072,-3.190922,2.831217,0.586635,-4.465801,-0.939362,-0.893736,-3.686488
2.780535,1.989898,-3.377611,-2.461815,1.645293,1.070918,0.715879,-2.574087,2.118282,-2.159248,-3.604306,4.449769,-2.426391,-2.121704,1.388031,0.084515,2.385978,3.081559,-0.372393,0.319503,-1.585443,0.277058,2.723072,-0.388829,2.255098,-2.075389,1.587788,-1.778803,-5.098509,-0.412493,-0.993513,2.663955,-0.523920,-1.370674,0.552289,0.295200,-1.747231,-2.011835,-1.739962,0.118051,-2.972633,-0.652118,-0.884102,-0.273995,-3.751373,-4.322327,0.700342,-1.411171,2.218008,-3.601427,-1.877615,-1.260563,-2.473872,-1.934018,-4.578041,0.850300,-0.068383,0.620346,-2.087624,2.072109,3.552402,-0.935663,-0.388964,-2.371619,-5.524889,6.021823,-3.651468,1.673432,-3.931636,2.295119,-1.265818,-1.584844,0.665453,1.765652,2.024783,-1.284321,2.490552,-6.320430,-4.748916,3.988507,-2.243779,-2.035508,3.547993,-2.381099,1.612297,2.394630,0.485604,-3.791160,3.804199,-0.442898,-2.398830,0.889551,0.737841,-2.783791,1.205357,0.000478,-3.948618,0.991837,0.823411,-2.460828
5.325053,1.269756,-4.480259,-2.090851,4.205683,4.141374,4.726125,-4.205185,6.892319,-8.884969,-6.933883,5.647399,-0.785642,-0.381690,6.659573,1.258577,2.558366,6.723627,0.061176,1.645044,-3.338589,4.075614,5.947168,-4.733359,4.250763,-1.507887,5.351579,-1.678146,-9.203059,3.012591,-2.709596,6.417964,-2.149778,0.822519,-2.567611,-3.438195,-4.524656,-5.116809,-2.457403,-3.527787,-3.537054,0.494013,-5.430161,4.176207,-6.649423,-7.572092,3.470808,2.006993,5.284136,-4.102716,-3.618838,-6.069055,-5.586276,-7.254070,-6.755091,3.875387,2.768443,5.103408,-4.672285,2.657382,2.661277,1.255444,0.476447,-6.663949,-8.386889,8.131564,-5.509272,-0.368194,-5.656723,3.358626,1.966867,0.146498,-2.909112,6.495255,-0.249572,-0.093082,6.154640,-9.322114,-7.925867,5.251699,-3.650381,-3.990878,5.369721,-1.356856,1.079901,5.931031,-2.009895,-7.839555,4.922166,0.187346,-0.129197,-2.012508,-3.085635,-2.936126,2.308391,-2.017923,-4.000989,3.855794,3.073057,-0.217437
3.598942,-0.460754,-4.105464,-1.479131,3.503029,3.459343,3.454781,-3.493134,5.125731,-9.145266,-6.754553,2.864295,-2.121482,-0.881221,6.631604,-0.243259,2.648999,5.291540,-1.306589,2.327127,-1.548719,1.775255,3.936698,-3.174568,3.884576,-2.287923,4.506249,-1.595586,-7.534636,2.039856,-0.493276,4.575474,-1.237937,0.604118,-1.443548,-2.088921,-3.627176,-4.092852,-3.235593,-4.444362,-3.418607,0.008466,-4.960082,2.487199,-6.570815,-6.139261,3.993453,1.804594,4.599993,-3.420172,-3.219113,-5.707344,-3.952981,-7.387557,-5.831625,2.965734,2.537733,2.713707,-4.491786,2.823935,0.998755,0.323398,-0.627882,-5.027822,-7.776547,5.422258,-4.463826,-0.720887,-4.464183,3.084270,0.497116,-0.888025,-2.605327,6.553124,-1.556713,2.146395,5.222373,-8.246096,-5.762926,4.559351,-3.346506,-3.851423,4.215023,-1.902271,2.356684,6.018938,-0.896847,-7.712120,4.591687,0.473301,-2.058448,-3.502798,-1.263613,-2.424866,4.079971,0.503524,-2.901795,3.202607,2.090703,-0.371214
6.114260,0.585906,-5.815004,-3.939169,4.855321,4.643439,3.481698,-4.578410,6.235793,-9.926449,-8.028427,4.372153,-3.156070,-1.430763,8.962111,1.569425,1.630850,6.419512,-1.930815,1.442569,-2.215546,2.306908,4.562070,-2.841062,2.937699,-3.459065,7.031552,-2.858268,-9.212968,1.371458,-0.245472,6.328953,0.452776,0.348210,-0.105702,-1.537085,-4.626014,-3.403017,-3.796389,-5.434633,-4.470176,1.266096,-6.480266,2.119842,-8.692955,-9.936242,4.018030,2.654310,5.881830,-5.852122,-2.339334,-7.835405,-5.638750,-8.754200,-8.702881,3.920711,1.243247,3.674759,-5.274542,3.385815,3.295481,0.292222,-0.031317,-5.822006,-10.910105,7.263893,-6.649433,-0.787457,-4.433709,3.289840,0.054726,-2.076571,-3.972351,8.592121,-1.333866,0.842907,6.305714,-11.964500,-5.858525,6.424157,-5.987484,-3.816467,4.452143,-2.084946,2.794518,5.820653,-0.412195,-10.488796,7.573524,0.550249,-2.651270,-3.357756,-1.305491,-3.466047,5.540673,-0.069163,-3.900292,2.799579,1.336920,-1.506686
3.444299,0.202194,-4.327230,-3.058532,2.406723,2.707421,1.097224,-2.223609,3.891238,-6.372608,-5.415596,2.914888,-4.097293,-2.428983,5.873847,-0.452620,1.602271,5.313648,-2.039210,0.485847,-1.242285,-0.767550,1.747858,0.811505,2.682207,-3.249339,5.080106,-3.908547,-5.981722,-0.267803,0.154219,3.165212,1.716030,0.319727,0.938693,0.183342,-2.027564,-0.933701,-3.100757,-3.865289,-3.764219,0.962386,-4.393514,-1.446975,-6.898461,-5.883552,3.783465,1.182121,3.552431,-4.544307,-0.518944,-3.845740,-2.773517,-7.035975,-4.894201,1.393377,0.420398,-0.266357,-2.912530,2.133961,2.786880,-0.251948,-1.215363,-3.514805,-8.622411,3.820892,-5.672701,0.612164,-3.193571,3.294306,-1.574263,-3.285528,-1.275173,5.316037,-1.086166,1.829428,2.924222,-8.564837,-2.416909,6.404589,-4.988556,-2.179843,2.630908,-3.035838,4.460198,4.073896,1.581753,-8.136794,4.964852,-0.933417,-5.183043,-2.482457,1.938848,-1.799271,5.089727,1.961349,-2.172770,1.779389,0.035177,-1.694077
3.496073,0.245324,-5.415373,-3.314813,3.065638,2.758227,3.028883,-3.897178,4.795662,-5.617531,-5.226326,4.288099,-3.774612,-1.785772,5.898489,0.688472,0.885132,5.636894,-0.721051,0.182982,-2.292589,0.376941,3.503659,-1.284156,3.704806,-3.304677,5.875684,-4.062619,-6.857193,-0.122727,-0.803253,4.431520,1.022361,0.018787,1.056318,-0.367362,-1.526449,-2.468410,-3.460053,-3.556522,-3.345203,1.409433,-4.645683,-0.349127,-7.352824,-7.022754,3.144257,1.662919,3.571001,-3.533705,-2.140486,-5.080055,-3.376576,-6.952339,-5.297143,2.157091,0.692521,1.334403,-3.521539,1.541440,3.359090,-0.751729,-0.897728,-5.096812,-8.398328,5.705529,-5.495113,0.449910,-5.168144,3.348448,-1.703151,-2.516284,-2.318604,5.892679,-1.268125,1.734656,5.167383,-8.498554,-3.907512,6.472247,-4.876274,-3.919763,3.658333,-3.105289,3.283237,5.038301,1.005242,-9.088007,5.862190,-0.900284,-3.958400,-2.160082,0.301424,-2.692667,4.690644,0.369356,-2.728052,3.837368,1.139078,-1.899132
3.624604,0.310017,-5.995920,-2.000448,2.856894,3.100155,5.898551,-5.246558,6.231430,-6.793868,-6.056375,6.392413,-2.279974,-1.022278,5.078645,0.432934,2.678251,6.104625,1.160860,0.614866,-4.180638,3.418348,5.705621,-4.181195,6.111773,-2.861006,4.676884,-3.614432,-7.469648,1.587942,-1.896899,4.811450,-1.478155,0.012491,-0.262063,-1.005649,-2.654468,-5.258777,-4.948196,-3.167851,-3.858758,1.644465,-4.983798,2.140656,-7.443249,-7.813421,3.291225,1.708689,2.850244,-3.269176,-5.692831,-5.779436,-3.671112,-5.913876,-6.427840,3.089495,2.450681,2.108057,-4.080897,1.964770,2.854587,-1.044208,-1.403170,-7.631958,-7.338732,8.870304,-6.037945,0.720115,-8.607038,3.894547,-0.525951,-2.210609,-2.626427,5.160239,-0.631015,1.895962,7.333728,-8.053103,-7.660961,7.008357,-3.858191,-5.967481,4.504537,-3.631243,2.508983,7.376507,0.005544,-9.617976,6.691851,-0.519392,-2.172593,-1.526602,-1.116310,-3.051177,3.000130,-1.674355,-3.327712,6.366198,2.866047,-1.779561
-0.793388,-1.103709,-2.993122,0.184087,-0.670103,0.518708,3.558438,-2.415164,2.203372,-2.836407,-2.840198,3.575146,-1.310466,-1.327228,0.578849,-2.329485,2.805067,2.649073,0.869455,0.352085,-1.579179,1.113424,2.036353,-1.323051,5.735281,-1.330117,-0.025858,-3.008837,-3.248842,0.205419,-0.815609,0.049782,-1.136577,-0.362245,0.880384,1.667081,-0.818076,-3.893842,-3.627445,-0.400015,-2.219486,1.331744,-1.156156,-0.242313,-4.007120,-3.045619,1.425988,-0.336065,-1.183860,-0.335794,-4.337344,-1.080049,-0.641058,-1.971979,-1.837491,0.380283,2.456368,-2.084260,-1.722841,0.323439,0.681773,-2.090188,-2.914411,-4.119693,-2.295418,5.186506,-3.060250,1.230044,-6.865249,3.025794,-2.224985,-1.836197,0.445903,1.289718,0.454102,3.381363,4.487918,-2.463445,-4.563687,4.381769,-1.711330,-4.936118,2.224009,-3.810701,2.037717,5.030283,1.391043,-4.534608,3.664535,-1.237508,-2.567901,-1.209353,1.393768,-1.473651,1.702667,-0.670541,-1.346831,5.145430,2.078190,-0.963542
-0.653430,-0.350012,-3.242437,0.818855,-1.390233,-0.329275,3.134186,-2.809648,0.935034,-2.866853,-2.790960,4.632234,-0.408282,-1.295174,-0.371743,-2.394114,3.596610,3.444923,0.406314,0.549871,-2.098763,1.705690,2.643842,-1.583762,5.689907,-0.636378,-1.365441,-1.466976,-3.506799,0.438298,-1.760879,0.149012,-1.698506,-0.209953,0.401179,1.478298,-1.268266,-3.813501,-3.623237,0.090283,-1.348716,0.514615,-1.290946,0.222742,-2.506721,-2.880706,1.324414,0.004653,-1.083520,-0.920959,-4.663589,-0.702266,-0.076524,-0.606285,-2.370570,0.618087,2.282723,-1.641318,-1.823473,-0.347812,0.266465,-1.543215,-2.178535,-3.703081,-1.806980,6.422729,-3.413190,2.034041,-6.851782,1.928560,-1.620314,-1.467684,0.717015,0.226699,1.591818,2.551729,4.770837,-2.193057,-5.527483,4.280005,-0.870478,-4.856732,2.985050,-3.076545,1.202421,4.777550,0.402333,-4.259744,4.036814,-0.446555,-2.338193,-0.054782,0.871018,-1.308763,0.971402,-1.379799,-1.494818,4.575149,1.415505,-1.613786
3.377989,1.735353,-4.258091,-0.730655,1.891141,1.167193,5.452910,-4.448310,4.944618,-3.947422,-3.376914,7.253066,1.209782,0.553721,3.154465,1.735446,0.788211,6.354805,2.403983,-0.875831,-6.029904,5.488859,5.671316,-4.266317,4.479233,-0.235099,3.694910,-0.532533,-5.970050,2.617789,-4.445935,5.075812,-1.894307,1.286821,-1.837518,-3.601219,-1.875636,-4.913206,-3.390306,-1.977995,-1.483329,1.083005,-4.680553,3.959079,-3.979448,-6.383532,1.523501,2.380561,2.410265,-1.167068,-4.823443,-4.632813,-2.247282,-3.807579,-4.705001,2.519699,2.643622,4.033931,-3.092082,-0.534454,2.183074,1.183506,0.408730,-7.161834,-3.728971,9.188365,-4.663177,1.149667,-7.731718,1.510765,2.679147,-0.141746,-3.022406,2.699542,1.092532,-0.760253,6.608858,-4.138240,-7.126319,5.583728,-0.969485,-3.751061,4.386319,-0.510565,-0.964064,5.013091,-2.379915,-7.919917,4.408200,-0.492749,1.183502,1.925551,-3.798291,-1.117740,-0.455732,-4.700065,-2.566926,6.277363,3.018678,-1.325343
5.359339,2.232245,-4.808944,-2.182873,3.979858,1.758563,4.555660,-4.730844,5.828132,-4.672354,-4.069686,6.361557,-0.150881,0.466208,5.454669,3.088254,-0.426072,6.636517,1.856381,-0.994585,-6.583474,4.950981,5.556223,-3.710151,2.617888,-1.588064,6.354766,-0.303764,-6.487278,2.430308,-3.658100,6.912912,-0.750022,1.268332,-1.979787,-5.244737,-1.652878,-4.062852,-3.686583,-3.822572,-2.326055,0.236332,-5.899139,4.221815,-5.304061,-7.521120,1.946446,2.645593,4.733496,-2.066049,-3.994717,-6.340928,-2.765367,-5.847218,-6.291354,2.752924,1.819267,5.088637,-3.673317,0.678213,2.861645,1.808833,0.992376,-7.119377,-5.924260,8.701413,-4.922589,0.720337,-6.717262,1.435953,3.640638,-0.947191,-4.334314,4.286124,0.210024,-1.841224,5.968303,-6.141006,-6.299908,6.072025,-1.268131,-2.064350,4.360871,0.125454,-0.486292,4.803566,-2.750799,-9.909402,4.675077,-0.301641,0.676065,2.189349,-4.221984,-1.270785,0.442721,-3.502769,-3.330071,5.310782,2.767868,-1.951207
5.313365,1.896543,-6.021711,-2.616157,4.547475,0.504016,3.122320,-5.990349,4.009960,-4.867527,-4.665271,5.185750,-2.280685,-0.267216,5.523481,2.773565,0.194689,5.865484,0.524473,-0.097384,-6.304732,3.108691,5.376983,-3.083920,1.856712,-3.466888,6.117714,1.156310,-6.404881,1.200548,-1.890040,7.215396,-0.538845,0.080614,-1.096521,-5.206936,-0.657234,-3.668037,-5.427544,-4.954912,-2.686128,-1.953928,-5.801699,3.332948,-5.467232,-7.687627,2.041926,2.044744,6.005492,-2.480639,-5.123753,-7.248532,-1.206931,-5.705935,-8.054132,2.483843,0.768541,4.082794,-4.538886,1.736622,2.171080,0.759988,0.552259,-6.008731,-6.955961,8.667024,-4.519127,1.078943,-7.027127,0.775716,2.882118,-2.339366,-4.524299,4.414931,-0.281280,-1.630220,6.269917,-7.031493,-6.338366,5.933773,-0.301767,-1.932605,5.026883,-0.092860,0.368100,5.529862,-2.732656,-11.545572,5.854294,0.907497,-1.361911,2.650687,-3.456153,-2.036064,2.065094,-0.979325,-4.391703,4.605303,1.934605,-4.044941
4.785220,1.474362,-6.522864,-2.377601,4.400195,-0.730449,1.780392,-6.587493,1.853618,-4.786773,-5.232576,4.023026,-3.624926,-0.931492,4.515520,1.830337,1.687799,4.421161,-0.518875,1.053288,-5.645113,1.760538,4.967411,-2.701845,1.448611,-4.767905,4.361866,2.730414,-5.902820,0.417505,-0.200708,6.586198,-0.897281,-1.182919,-0.418628,-4.437463,-0.362370,-3.663386,-6.805131,-5.233054,-3.110082,-4.045004,-4.812602,2.807993,-4.948648,-7.112233,1.881075,0.835599,6.167026,-2.871023,-6.564287,-7.127641,0.361440,-4.247679,-9.396852,1.994598,0.222543,2.696184,-4.944240,2.802324,1.057590,-0.474446,-0.154477,-4.669190,-6.801791,8.746648,-3.726429,1.569116,-7.192865,0.132265,2.012713,-3.476822,-3.884892,3.676860,-0.131305,-1.396390,6.069628,-7.083504,-6.771019,5.161031,1.021695,-1.872600,5.209020,-0.575266,0.841370,5.947813,-2.622993,-11.537991,6.510400,2.102019,-2.819514,3.029316,-2.514749,-2.584617,2.750648,1.104132,-5.243948,3.587193,1.201324,-5.610685
7.936656,3.094633,-8.956589,-2.211240,7.513369,-0.334974,2.939785,-10.091819,2.304746,-2.674281,-3.743250,3.782585,-6.187222,1.438534,3.716660,6.155939,2.847956,2.815501,1.446718,1.955269,-8.490347,1.593221,8.805730,-7.625837,-1.048733,-8.125226,5.962389,4.932575,-2.744121,0.943104,1.005535,9.734019,-3.056327,-2.584139,-1.922606,-6.924720,2.059094,-1.272838,-8.291127,-7.179223,-1.583403,-6.376944,-6.612225,3.843066,-2.237820,-5.144331,3.586367,2.688273,9.314507,-4.869729,-9.903446,-10.434202,2.232836,-0.548600,-11.871075,4.980489,-4.103383,6.325675,-4.572629,4.757277,0.621143,-0.888881,2.877610,-5.059748,-6.071283,6.501444,-3.150157,1.545400,-5.733934,-3.086097,3.670166,-5.118276,-6.762454,1.710433,-4.675471,-4.338888,4.830886,-6.546690,-6.803028,2.907085,3.435743,-1.865459,3.711194,0.170388,2.308780,6.792132,-4.224163,-12.401124,6.919794,5.688895,-2.238383,5.239771,-4.475022,-3.237108,2.105111,3.309805,-4.809505,2.179442,-0.754129,-8.344374
9.748265,4.506688,-10.462130,-2.981696,9.196654,-0.186679,4.187289,-12.068819,3.251175,-0.608737,-2.726201,5.125292,-6.805832,2.480342,3.341249,8.958501,2.105440,2.585108,3.254895,1.287311,-10.719107,2.494148,11.117951,-9.991314,-1.988545,-9.324999,7.419806,5.355924,-2.123533,1.112234,0.484195,11.830666,-3.762216,-3.134399,-2.176291,-8.386255,3.337961,-0.960310,-8.585081,-7.307379,-1.078566,-6.659299,-7.281497,4.764768,-1.544867,-5.382034,3.363731,3.349711,10.460608,-5.263736,-11.524141,-12.055762,2.365719,0.893274,-13.071991,6.278612,-5.854187,8.689029,-4.450798,5.146140,1.646723,-1.077991,4.427644,-6.131230,-5.947300,7.172841,-3.122195,1.633144,-6.242985,-4.184567,4.431004,-5.334439,-8.309774,1.085943,-5.789836,-6.492902,5.188695,-6.568594,-7.488606,2.598341,4.125909,-2.175508,3.593543,0.577315,1.945828,6.989293,-4.977709,-13.275193,7.587433,6.656831,-1.151842,7.141846,-6.254797,-3.879334,1.167951,2.665888,-5.307081,2.570470,-0.836278,-9.562954
9.862168,4.872995,-10.715973,-4.116326,9.582520,1.950956,5.546601,-12.044928,6.011508,-2.027879,-3.817883,7.244580,-6.364022,2.059096,4.763906,9.119227,1.764726,5.102436,3.358616,1.507386,-9.630119,2.520383,12.618190,-11.017090,0.279819,-7.984357,8.925643,2.584909,-6.161696,1.267022,-1.929069,12.929770,-4.117533,-2.671814,-2.440106,-8.044485,1.988715,-2.424755,-5.992635,-5.572956,-1.301232,-4.862617,-7.305599,4.740873,-3.569795,-6.653018,3.625072,3.573304,10.836966,-5.497437,-9.926733,-11.707779,-1.419752,-1.872869,-11.899070,7.069941,-4.631329,10.774298,-5.188875,4.460274,4.222445,-0.624516,4.883919,-7.612137,-8.433533,8.602814,-4.307022,1.105132,-6.876841,-1.917080,2.863753,-2.791949,-7.545974,3.776357,-5.297078,-5.744747,6.743559,-9.221955,-8.902643,3.509676,1.106784,-4.494150,5.972745,-0.379320,1.769756,7.397802,-4.544355,-12.340150,7.491426,5.110495,-0.672398,4.591673,-6.848997,-5.254579,1.781635,0.966768,-6.126866,3.604666,0.614601,-7.617582
6.191404,3.194911,-8.101632,-3.436777,6.341073,1.260428,4.144373,-8.607100,4.626504,-1.586237,-3.134116,5.961555,-4.813839,0.654057,3.707969,5.734083,0.896620,4.827294,2.148802,0.709959,-6.602302,1.253641,8.746975,-6.911470,1.608383,-5.354143,6.749713,0.508551,-6.035755,0.221448,-2.129812,9.053188,-2.376102,-1.815731,-0.948553,-5.096194,1.604059,-2.516142,-4.118081,-3.332302,-1.320845,-2.815459,-4.913959,2.567303,-3.904964,-5.511224,2.403448,2.157769,7.272355,-3.386937,-6.716608,-7.777762,-1.630133,-2.798771,-7.798067,4.490186,-2.429476,7.061782,-3.983901,2.405829,3.814020,-0.749749,2.757029,-5.951444,-7.024419,7.294240,-3.631500,1.229454,-6.309468,-0.217093,0.742314,-1.774350,-4.776115,3.576867,-3.046461,-3.001642,5.857454,-7.392827,-6.677159,3.776973,-0.278901,-4.156956,5.452051,-1.048147,1.438484,5.741774,-2.577224,-9.495979,5.768394,2.521514,-1.389212,2.706403,-4.247497,-4.149145,2.053420,0.371646,-4.790720,3.796057,1.097939,-5.244226
0.372366,1.059630,-5.317416,-2.084807,1.053622,-1.702396,1.762389,-5.058999,0.970899,0.026610,-1.671367,5.223688,-2.393780,-1.594468,1.192836,0.778651,-0.511102,5.433558,0.136405,-0.491319,-3.345439,-0.723729,3.923767,-0.937993,3.859134,-1.607397,2.831323,-0.632323,-6.403436,-1.950446,-3.499866,3.912415,-0.101330,-0.666969,1.383022,-1.528193,1.815696,-3.191378,-2.413128,0.057331,-0.337532,-1.482732,-1.735217,-0.519023,-3.535763,-4.071445,0.041037,0.199173,2.441026,0.723707,-3.171410,-2.252023,-0.315361,-3.512905,-2.453958,0.438035,0.776211,1.773777,-2.924772,-1.826915,2.965518,-0.976502,-0.126787,-3.634550,-4.632660,7.301544,-2.676702,2.357427,-6.990721,1.198707,-2.321005,-0.206865,-0.742588,2.543716,1.140223,0.733559,6.086382,-3.993130,-4.496680,4.720849,-0.745184,-4.272927,6.275386,-1.616132,-0.052519,3.873042,-0.589308,-6.698922,4.026159,-0.883592,-3.096925,1.625814,-1.271307,-2.476921,2.237803,-0.969576,-3.574091,4.989312,1.603187,-3.443423
-3.456374,-0.119385,-2.846703,-0.911229,-1.827657,-4.311174,-2.512825,-2.319923,-3.933149,2.301398,0.223353,1.978123,-2.206507,-2.908522,-1.659392,-2.055376,-0.610837,3.594024,-2.366835,0.109540,0.414097,-4.689352,-0.019385,3.129246,2.714867,-0.099971,-1.060618,0.656131,-4.545056,-4.061850,-2.498705,0.161127,1.087803,-0.948496,2.696534,0.735109,2.999845,-1.226626,-0.375976,2.131105,1.187257,-2.990363,1.634718,-3.450461,-0.759622,-0.186437,-1.451902,-1.641896,0.427196,2.532350,-0.158669,1.953504,1.900208,-1.691016,1.207541,-2.231112,0.642349,-1.559712,-1.690745,-3.442723,1.319673,-1.348513,-0.750383,1.006714,-2.299920,3.785063,-0.040541,2.792009,-3.881875,0.240346,-4.601923,0.654346,2.389247,0.618708,2.635072,2.224342,3.377980,-1.008919,-1.186018,2.279364,0.573368,-2.647921,5.858684,-1.230461,-0.403851,1.186336,0.334240,-2.340760,1.463211,-1.240745,-4.826947,1.119370,1.306555,-1.469169,2.566570,1.289021,-2.568442,2.009344,0.123817,-3.101353
-3.561103,-0.053818,-1.628172,0.087316,-2.447291,-4.653325,-3.749078,-1.415900,-5.381110,2.035925,0.863014,0.829703,-0.971022,-2.279763,-1.979969,-1.983214,-0.665154,3.256273,-3.444102,0.600217,1.404987,-4.986142,-0.633907,3.264824,1.238957,0.958810,-2.192084,2.296342,-3.592957,-3.681404,-2.366766,-0.389324,1.048691,-0.286574,1.995907,0.472562,2.572161,0.142515,0.860798,2.065938,2.723026,-3.547952,1.673280,-3.305882,1.538626,1.307971,-1.236534,-0.758193,0.636932,2.481028,1.265139,2.530634,2.583474,-0.662857,2.177769,-2.000232,0.136717,-0.919705,-1.184502,-4.112855,0.014901,-0.187855,0.455712,2.763155,-1.115142,1.875707,0.738579,2.359682,-1.099491,-1.454288,-3.765692,1.700998,2.364101,-0.023525,2.357753,1.770338,2.084059,0.118556,0.122607,0.487003,1.289597,-1.500819,5.151624,0.363060,-1.025362,-0.255021,-0.469832,-0.420982,0.469810,-0.173722,-4.096176,0.801825,0.805760,-0.540499,2.285192,1.420006,-1.437556,-0.055142,-1.208902,-2.459584
0.375566,1.230487,-3.115975,-2.494394,1.087888,-0.699680,-1.508271,-2.747393,-0.601062,-0.622566,-1.637814,2.468658,-2.253337,-1.965406,1.585973,0.629924,-0.580925,4.365779,-2.607283,0.895270,0.704798,-3.387998,2.073503,0.409152,1.282509,-0.417375,1.852358,-0.207643,-6.606038,-2.467962,-2.485671,3.004165,0.525714,-0.641707,1.180483,-0.440361,0.508274,-0.615625,1.509357,1.080450,0.538470,-2.040619,-0.318355,-1.799705,-1.860013,-2.041245,0.052706,-0.120475,3.423545,-0.632014,1.261182,-0.500120,-1.933371,-3.466103,-0.911207,0.457451,-0.465992,2.589491,-2.491005,-1.445891,2.982391,0.036461,1.643109,0.189970,-5.412208,3.260953,-1.364256,1.038228,-1.112836,0.523089,-3.285335,1.856822,0.628480,3.481422,0.924155,0.142606,3.008190,-5.065300,-1.801332,1.597097,-1.965003,-2.512638,5.831616,-0.480212,0.022521,0.798396,-0.435899,-2.013933,2.064775,-0.086091,-3.027012,-0.845471,-0.462768,-2.598391,3.155609,0.943637,-3.048801,-0.152159,-0.204772,-1.830449
6.304605,3.977469,-6.266470,-6.917826,6.131864,2.820701,1.698542,-5.922974,5.417539,-2.827821,-5.310623,7.100020,-3.004351,-1.852287,6.157063,4.789153,-1.733913,6.346369,-0.567068,-0.102301,-2.507427,0.969426,6.344430,-2.839537,1.240165,-2.490001,7.544476,-1.931249,-12.017673,-1.299201,-3.639032,8.813191,0.229580,-1.626189,0.969751,-2.894593,-2.147926,-3.552919,0.553494,-0.018049,-3.111776,-0.623816,-2.620417,1.720785,-7.147713,-9.785816,-0.724448,-0.308417,7.210290,-3.929380,-0.463253,-5.471703,-7.442390,-6.995486,-7.620402,3.012938,-0.498925,7.668063,-5.039225,1.892884,8.155100,0.144756,2.769161,-4.423459,-11.337319,10.094899,-4.319564,0.376191,-4.694981,2.979094,-1.543122,1.770005,-2.316335,7.940049,2.156254,-3.833037,6.779343,-12.429629,-6.866716,4.647945,-5.170297,-3.446707,8.417932,-0.724802,-1.151432,2.358117,-1.450302,-6.872446,6.079792,-0.368614,-0.459998,0.508230,-3.862294,-5.973121,2.863684,-2.313203,-7.758884,1.873933,2.445424,-2.877102
8.579514,2.058576,-7.279010,-5.283399,8.552746,6.813340,9.727996,-7.652290,13.125902,-9.918541,-9.141614,9.048730,-1.395570,0.469700,10.517058,4.646565,0.200543,7.892320,3.667292,0.482766,-6.808472,8.119013,9.858566,-8.736328,6.039829,-3.257123,11.008129,-3.905601,-13.314314,4.011696,-4.072325,11.159727,-2.851628,0.061390,-2.603973,-6.296084,-4.957617,-9.656204,-4.079998,-4.466343,-6.524942,2.432738,-7.271940,7.746139,-12.218740,-13.763183,2.476053,1.858079,7.535835,-3.678180,-6.941482,-10.874412,-9.880717,-11.318389,-10.861588,5.677934,4.251140,9.333041,-6.972569,4.636853,6.421087,0.433708,0.129929,-12.405069,-11.849003,13.937328,-6.766151,-1.596371,-11.361074,6.364849,3.089761,0.516734,-6.323586,10.855321,-0.552153,-1.438200,11.177688,-13.386352,-12.464047,7.977248,-5.455882,-6.495750,7.739112,-2.216175,-0.416689,8.930272,-2.758589,-12.934951,7.691638,-0.986257,2.721304,-1.366376,-6.772897,-5.702093,1.969357,-5.463474,-7.472840,9.124153,7.261704,-0.331160
12.855301,1.458933,-8.076577,-6.369095,11.700284,11.407191,13.830200,-7.994189,19.103071,-17.425217,-14.107336,9.999582,-0.721161,1.231320,16.547747,5.291897,1.039539,9.070652,4.458824,0.766523,-8.709963,13.548261,11.285079,-11.177809,7.028617,-4.448741,15.089898,-5.874765,-15.575644,7.688948,-2.620354,13.689830,-2.997768,1.227768,-4.299915,-7.870515,-9.521388,-12.559019,-7.087304,-9.078722,-10.672679,5.300455,-11.628835,11.895836,-17.677322,-19.870007,4.818579,3.721865,9.223987,-6.818171,-8.920508,-16.175701,-13.729086,-16.165409,-16.230612,7.947058,6.716097,10.705808,-9.149234,8.397045,6.715984,1.292189,-1.202795,-17.108311,-15.528815,16.984335,-10.168353,-3.709232,-13.600207,9.081319,6.586450,-1.204637,-9.827323,15.375835,-1.668779,-1.153344,13.589478,-18.291178,-15.605953,11.110738,-8.433946,-6.804990,6.637762,-2.749933,0.514153,12.136673,-3.157196,-18.381725,10.740634,-1.084902,4.706773,-3.586611,-8.247036,-6.056549,2.947751,-7.244254,-8.234814,11.362174,9.505688,1.233232
11.889867,0.168224,-6.260276,-6.409524,10.185078,10.736340,8.773634,-4.995613,15.293469,-18.585623,-14.404042,5.468659,-2.185487,-0.415043,17.099834,2.970738,1.479321,7.445146,0.099648,1.678991,-4.686913,9.412391,6.711995,-6.226184,4.019515,-4.922179,13.449772,-5.360361,-13.388121,6.077105,0.981851,10.581538,-0.128258,1.285037,-2.751300,-5.170769,-10.069410,-8.512775,-6.516742,-10.483408,-10.646791,4.384997,-10.928481,8.461535,-16.754061,-18.134804,5.607183,3.345078,9.048372,-8.443630,-4.785367,-14.399278,-11.878379,-16.342062,-15.497798,6.390121,5.147417,6.831805,-8.299802,8.972163,4.787448,1.419561,-1.740113,-12.312753,-16.183834,11.939354,-9.652929,-3.952510,-8.076216,8.037964,5.163498,-3.011996,-8.301050,15.189831,-1.952173,0.080659,9.655954,-18.545731,-10.751829,9.994514,-9.256743,-3.574560,4.305050,-2.418014,2.593966,9.644905,-1.495430,-16.915977,10.073151,-0.465670,1.244822,-5.544485,-4.413645,-4.793353,5.751504,-2.834898,-6.630840,6.293262,6.059731,1.103963
9.552394,1.840910,-6.407255,-5.450558,6.156902,6.754315,5.157904,-4.656194,9.097885,-11.733980,-9.743985,6.634642,-2.276295,-1.103241,11.129801,3.108351,1.352596,7.191596,-1.030038,0.110600,-4.162177,5.913669,5.441799,-3.378350,2.319827,-3.926010,9.132009,-4.186582,-9.689507,3.023537,-0.059575,7.778172,1.121185,0.829082,-0.283197,-1.828651,-7.144790,-3.682280,-5.056783,-6.841448,-6.453420,3.560598,-8.735168,3.798997,-10.832527,-14.196579,4.325385,3.577101,6.388126,-8.657340,-2.464435,-10.078064,-7.624136,-9.570824,-12.275751,5.043030,1.097527,4.553045,-5.607888,4.879682,5.000970,1.041050,0.129140,-8.002534,-12.660409,9.933082,-9.246071,-1.053083,-5.223338,4.093710,2.259758,-3.671972,-5.635580,9.614105,-0.466236,-1.321548,6.956459,-14.792960,-7.194685,8.762601,-7.996290,-2.970084,3.266521,-2.074987,2.784202,5.954032,-0.407169,-13.282381,9.978615,0.449281,-1.085337,-2.342377,-1.984880,-3.481510,4.845005,-2.406074,-4.535169,3.084345,1.521307,-1.653718
5.569603,2.786657,-4.490671,-4.134356,2.774054,2.874023,0.800429,-2.540508,3.940668,-3.296871,-4.174813,5.111623,-3.615062,-1.924987,4.159070,1.921988,1.432907,4.589018,-0.683585,-0.957869,-2.766484,0.575543,2.755899,0.363161,0.785710,-3.372559,4.995184,-3.780221,-4.600729,-0.223166,-0.462045,3.891674,1.700317,-0.343567,1.166746,0.538674,-2.209843,0.655798,-2.455263,-2.347751,-3.469495,1.408173,-4.017877,-1.313656,-5.324314,-6.448107,2.616056,0.905568,3.378661,-6.556454,-0.077278,-3.384649,-3.062661,-3.640305,-6.227261,1.967799,-2.063014,0.922623,-1.794523,2.400908,4.904109,-0.052368,0.521683,-3.260374,-7.920936,4.896155,-6.268879,1.491495,-2.222795,2.009333,-0.671778,-3.890638,-1.289993,3.063670,0.306428,-2.054731,1.495088,-8.799791,-2.525689,6.197723,-4.985518,-0.846789,1.489098,-2.451880,3.699381,1.948536,1.358494,-6.924508,5.586660,-0.453930,-3.641350,0.564843,1.436279,-2.043614,2.795718,0.307392,-2.617260,0.014838,-1.019360,-2.938403
4.280672,2.767884,-4.764480,-3.344566,1.988080,2.159871,0.627467,-3.123002,2.543711,-2.155547,-3.771348,5.470193,-3.847010,-2.231909,1.946981,1.301806,2.882323,3.957914,-0.730123,0.093890,-1.764605,-0.493722,3.542274,-0.636188,1.762392,-3.176658,2.669393,-3.167897,-4.943593,-0.799381,-0.708537,3.247879,0.229705,-1.339818,1.226312,1.486709,-1.861922,0.112476,-1.747094,-0.381889,-2.739591,0.319283,-2.206694,-1.797751,-3.870625,-4.879063,2.116956,-0.094127,2.870551,-6.193190,-1.106637,-1.992732,-2.903686,-1.491863,-5.502244,2.025232,-2.213822,1.002747,-1.816464,2.298184,4.721494,-1.022376,0.657214,-2.299905,-7.175469,5.175153,-5.390743,2.031636,-2.532547,1.795014,-2.226502,-2.866289,0.256293,1.923702,0.739860,-1.824179,1.769695,-8.212207,-3.752353,4.752217,-4.164022,-2.495018,2.647514,-3.073532,3.467168,2.155345,1.371848,-4.517704,5.266867,0.229186,-3.850219,0.369660,1.726964,-3.048879,2.428683,0.745292,-3.163329,-0.333809,-1.106298,-3.290026
4.570939,2.208093,-4.431329,-1.950783,2.646202,3.439920,3.205743,-3.506492,5.135356,-5.643935,-5.144832,6.061632,-2.088154,-1.040115,3.688753,0.962201,3.605631,5.668310,0.197708,1.092593,-2.785059,1.923161,5.277772,-3.399408,3.858309,-2.001933,3.447976,-2.652546,-6.781276,1.709819,-2.301277,4.541163,-1.771689,-0.031578,-1.431022,-0.990060,-3.229159,-2.578783,-1.835352,-1.567629,-2.793542,0.447940,-3.875220,1.289129,-4.685799,-5.127017,3.397381,1.163384,3.747718,-5.318186,-2.666448,-3.468494,-4.164975,-3.880303,-5.279978,3.236507,0.454515,3.149375,-2.929212,2.255113,3.420318,0.343163,0.725449,-4.845646,-7.158366,6.281398,-5.685556,1.006802,-4.129857,2.689742,-0.018579,-1.114749,-0.855938,3.498847,-0.186170,-0.660140,3.521782,-8.183118,-6.253306,4.934648,-3.741100,-3.766905,3.901004,-2.528774,2.709844,4.315027,-0.349266,-5.478095,4.521325,0.234695,-1.897405,-1.019208,-0.579143,-2.718832,1.809671,-0.723832,-3.042531,1.982291,1.052920,-1.363737
6.327554,0.793355,-5.672942,-1.262797,4.803616,5.889112,7.128996,-5.315101,8.879226,-11.719084,-8.297726,6.432229,-1.236798,0.291316,7.985377,1.362435,4.285739,7.748565,0.636614,2.453652,-4.333400,5.269594,7.708953,-7.309050,5.897624,-2.303522,6.048728,-2.637104,-9.286729,4.529358,-2.432139,7.091587,-3.250749,1.333083,-3.532270,-3.612118,-5.408519,-5.734862,-4.007007,-5.327231,-3.902282,1.395204,-7.645562,4.982858,-7.511715,-8.128178,5.877205,3.818009,5.760525,-5.520094,-5.643252,-8.125189,-5.988287,-7.851710,-7.921024,5.671350,3.082156,5.722065,-5.247720,3.500091,1.930310,1.067206,0.469740,-8.716776,-9.116124,8.216908,-7.091407,-0.893130,-6.646642,3.641473,2.445525,-0.768487,-4.161561,7.271223,-2.507741,1.215265,7.131786,-10.262047,-9.309491,6.209344,-4.478478,-5.901155,4.867118,-2.276901,2.700197,8.318180,-2.084816,-9.745138,6.278182,1.049428,-0.371408,-3.575170,-3.262629,-2.894329,3.121168,-1.786491,-3.115010,5.197598,3.058167,0.018786
6.261600,0.264182,-5.761923,-3.361718,5.262510,5.651564,5.184267,-4.707069,7.795432,-10.438127,-8.363480,4.600633,-3.176005,-0.921399,8.816808,1.450165,2.549165,5.889901,-0.674776,1.720600,-2.750261,3.361879,5.467681,-4.434891,3.914409,-3.834731,7.066844,-3.724070,-8.688925,2.433248,-0.025785,6.290397,-0.651393,0.221066,-0.902569,-1.696533,-4.808918,-4.271630,-4.310279,-5.636937,-5.096402,1.815540,-6.662654,2.943742,-9.109807,-9.653168,4.680781,2.653986,5.538827,-5.856667,-3.777590,-8.151427,-6.084887,-8.478258,-8.819493,4.467922,1.790811,3.801304,-5.092522,4.301759,3.045600,-0.153584,-0.523991,-7.080296,-10.367043,7.191192,-6.667229,-1.104684,-5.470490,4.054092,0.461655,-2.315317,-4.134318,8.388274,-2.194350,1.261426,6.382856,-11.584844,-6.841990,6.451486,-5.875460,-4.607055,3.770256,-2.816724,3.318013,6.934839,-0.266000,-10.405200,7.271065,0.477851,-1.992443,-3.790185,-1.492931,-3.585033,4.890544,-0.277672,-3.639844,3.765941,2.207743,-0.858757
6.792268,0.538186,-6.033353,-4.463136,4.865432,5.573101,4.190092,-4.290579,7.295814,-10.107150,-8.415338,4.815526,-3.545604,-1.531837,9.403727,1.584771,1.710279,6.151416,-1.492371,0.787889,-2.441031,3.061433,4.286038,-2.488610,2.994232,-4.104645,7.606287,-4.568392,-8.375728,1.569000,0.597084,5.863666,1.150060,0.286203,0.596728,-0.456507,-5.151169,-3.022327,-4.540663,-5.958704,-5.551152,2.717499,-7.018979,1.626868,-9.802310,-11.115105,4.374543,2.787543,5.138684,-6.873278,-2.381692,-8.207864,-6.001495,-8.721600,-9.524878,4.008360,0.941527,2.660514,-4.885805,4.090823,3.891887,-0.142523,-0.669138,-6.457126,-11.324570,7.368939,-7.708613,-0.810937,-4.815936,3.990400,-0.066443,-3.568042,-4.180074,8.593853,-1.436496,0.895490,6.075128,-12.626755,-5.571567,7.630335,-7.232706,-3.709387,3.105944,-3.021101,3.769539,5.957091,0.704713,-11.375288,8.456102,0.144679,-2.984641,-3.484611,-0.380395,-3.347352,5.692615,-0.233261,-3.564687,3.058403,1.045451,-1.581575
3.221667,0.696014,-5.009312,-2.407161,1.603186,2.139273,2.474530,-3.217828,3.829562,-5.385880,-4.794933,4.857569,-2.982141,-1.889329,4.787406,0.086073,1.608246,6.111424,-0.934803,-0.222944,-2.734901,0.776398,2.959679,-0.393057,3.739406,-2.630858,4.530574,-3.703867,-5.747918,0.180133,-1.174324,3.412498,1.133921,0.559338,0.904360,0.188911,-1.923886,-1.606585,-3.788416,-3.300674,-2.903063,1.535298,-4.827328,-0.759205,-6.131355,-6.417793,3.497797,2.035114,2.631951,-4.110079,-1.917980,-4.042873,-2.280156,-5.588903,-4.947104,1.781722,0.604539,0.196726,-2.894145,0.847618,2.785707,-0.205795,-0.865886,-4.689670,-7.459682,5.736100,-6.225262,1.229604,-4.870558,2.614797,-1.172222,-3.258621,-1.727230,4.260227,-0.426349,1.536189,4.332683,-7.541729,-3.598396,6.975259,-4.478184,-3.258299,2.921761,-2.896317,3.600250,4.653757,1.072106,-8.782438,5.832135,-0.850042,-4.344517,-1.283183,1.030864,-1.582332,4.064771,0.020929,-1.866007,3.258735,0.197009,-2.221567
3.644129,1.453830,-4.847290,-2.738303,2.178147,3.010255,4.895860,-3.405423,6.238319,-2.546439,-2.681912,6.303131,-1.958246,-0.421926,4.109772,2.224332,-0.237064,5.784873,2.072001,-1.883761,-4.333432,2.451556,4.298098,-2.249517,3.942942,-2.078690,6.081332,-5.350900,-4.678994,0.719074,-2.842355,4.087011,0.768403,0.878807,0.642208,-0.514848,-0.682339,-1.828385,-2.484899,-1.962393,-2.276924,3.704239,-4.825709,-0.002096,-5.859638,-6.066733,2.699261,2.539399,1.648259,-2.823687,-2.070714,-4.132595,-3.223630,-4.869993,-3.284869,2.398913,0.207068,2.063834,-1.721361,-0.031404,4.371511,-0.144389,-0.077470,-6.489291,-5.826232,5.540440,-5.876213,0.915904,-5.504924,3.005039,-0.709065,-2.269421,-2.532675,3.582450,-1.219639,0.417465,4.437591,-5.844850,-3.290163,6.779751,-4.864739,-3.805847,1.953253,-2.888096,2.744336,4.018760,1.107267,-7.816748,4.839375,-1.844718,-1.790100,-0.404338,-0.492658,-1.505845,2.031452,-2.476367,-1.133257,5.114239,1.391037,-1.125754
2.541170,1.892854,-4.678895,-1.145491,0.617367,1.458271,5.916111,-3.997912,4.934666,-0.123059,-0.694272,7.796578,0.023298,0.600929,1.291957,2.548269,-0.035370,5.707253,3.655309,-2.605720,-5.847903,3.962405,5.274086,-3.560967,4.633282,-0.718139,3.873671,-3.898503,-3.122078,1.134088,-4.434140,3.556145,-0.526883,1.170965,0.177880,-0.722992,0.162162,-2.244583,-2.600031,-0.381497,-0.410615,3.624348,-4.189970,0.760131,-3.102297,-4.656787,1.750851,3.051981,-0.010881,-1.380691,-3.638613,-3.068838,-1.612839,-1.490577,-2.136006,2.455496,0.337809,2.478748,-0.863031,-1.961244,3.571981,-0.061147,0.447454,-6.857525,-2.511258,6.602883,-5.235217,1.789080,-6.750348,1.375327,0.041033,-1.478440,-2.327900,0.829211,-0.364132,-0.227623,4.989151,-2.651457,-4.080643,6.053269,-2.714098,-4.561830,1.909435,-2.171756,1.034543,3.871955,0.159763,-6.617171,4.412949,-1.383244,-0.178791,1.685732,-1.568369,-0.781338,-0.276768,-4.577648,-0.339129,6.317489,1.405982,-1.506954
2.927728,2.988510,-4.588076,-0.169240,0.561323,0.748582,6.362144,-4.631013,4.587790,1.136588,0.534737,8.839340,1.295829,1.676883,0.064966,3.731327,-0.066395,6.185812,4.596385,-2.720994,-7.228265,4.880525,6.673448,-5.085143,4.267886,0.105959,3.283996,-2.196706,-2.619961,1.890994,-5.952856,4.302642,-1.777045,1.518341,-1.166750,-2.308997,0.601475,-2.083029,-2.049307,0.217965,1.208210,2.840229,-4.358369,1.939938,-0.915715,-3.497580,1.575037,3.857466,0.337609,-0.930074,-4.304554,-2.984829,-0.837424,0.219616,-1.650921,3.031662,-0.140124,4.352477,-0.528045,-2.959838,3.192995,0.937198,2.006906,-6.929697,-0.866341,6.999681,-4.712347,2.162788,-6.547199,-0.157179,1.533800,-0.352063,-2.749773,-0.634422,-0.290001,-1.739688,4.982175,-1.042618,-4.678047,5.029385,-1.099838,-4.277874,2.234953,-0.781265,-0.181580,3.484032,-1.463231,-5.669781,3.608956,-0.628278,1.378784,3.355401,-3.304704,-0.311734,-2.047300,-5.727192,-0.034724,6.191680,1.223468,-1.694997
1.293672,2.858582,-3.186420,1.349679,-0.883148,-1.575873,5.076498,-3.435084,2.434619,3.695199,3.038778,7.641476,2.364203,2.257778,-1.986647,3.376657,-1.136225,5.609595,5.034761,-3.587179,-8.004812,4.341074,5.162582,-3.614039,3.195465,1.131580,2.099913,-0.404601,0.327635,1.736355,-6.458139,3.137476,-1.395175,2.321527,-1.591806,-3.413585,2.774739,-0.805219,-1.904535,0.346424,2.911492,1.823657,-3.789334,1.472630,1.753274,-0.664943,1.059075,3.972012,-0.649938,1.311372,-3.718755,-1.384610,2.116640,1.689409,0.843691,1.664640,-0.209669,3.230656,0.784129,-4.711541,1.517526,1.726452,2.128998,-5.773233,2.320793,4.963725,-3.216235,2.822346,-5.671607,-1.801884,2.809382,-0.406353,-2.406387,-3.300914,-0.210434,-1.947627,3.234775,3.121830,-2.562749,4.181704,1.676462,-2.338520,1.200230,0.529192,-0.978544,2.149780,-2.093604,-4.795953,1.374249,-0.833565,1.593520,5.301589,-3.294549,1.796706,-3.530562,-5.614422,1.495944,6.056890,0.643735,-1.821900
5.968161,4.313838,-4.715907,0.062522,3.726898,1.555579,7.811471,-5.532253,7.781797,-0.435865,0.463614,9.242315,2.060309,3.836574,2.660739,6.504696,-1.249125,8.259079,6.618044,-2.842987,-11.169970,7.209083,9.097752,-7.756335,3.032380,-0.008620,7.359367,-0.034374,-3.182565,4.527995,-7.912247,8.637737,-3.005429,3.176585,-4.992380,-8.690870,1.346649,-2.729124,-2.358383,-2.773889,1.303421,1.144246,-7.490936,5.674369,-1.029867,-3.372932,3.108251,5.755445,4.263536,-0.473865,-5.358979,-6.066124,-1.022570,-2.675838,-2.579344,4.402069,0.436902,8.816084,-1.313739,-2.319723,2.763068,3.810373,4.007376,-9.643051,-1.533930,7.012732,-4.684482,1.410283,-6.760880,-0.892225,6.765009,0.434006,-5.758667,0.167487,-2.366365,-4.110423,4.727421,-0.855680,-5.691764,5.315793,1.202670,-2.118357,2.924834,1.737711,-1.067532,4.319148,-4.619607,-8.626644,1.648870,-0.151910,3.809822,5.263903,-7.200922,0.909459,-3.764108,-6.463542,-0.353921,7.395473,2.804531,-1.223338
6.245353,4.357659,-3.883033,0.170176,4.075852,1.155172,6.705339,-4.791546,7.470996,-0.671996,0.814906,8.064156,2.300663,4.174584,3.384793,6.794294,-2.259873,8.459635,6.202985,-3.025256,-11.422319,6.948287,8.201536,-6.800624,1.695093,0.297882,8.289397,1.096313,-2.684924,4.785897,-7.912492,9.003736,-2.360120,3.839778,-5.720164,-10.181145,1.749248,-1.951952,-2.124891,-3.757031,1.621278,0.461983,-8.137776,5.950762,-0.691435,-2.810604,3.283831,6.154769,5.121177,0.014165,-4.298313,-6.215518,-0.396577,-3.730950,-2.132292,4.012472,0.471630,9.114131,-1.138640,-2.544965,2.150302,4.916091,4.529945,-9.169844,-1.412255,5.657129,-4.142687,1.224745,-5.397923,-1.451253,8.266514,0.636754,-6.317271,0.296662,-2.728258,-4.580277,3.644805,-0.232179,-4.338810,5.052508,1.984264,-0.275248,2.550467,2.987116,-1.381599,3.604677,-5.337815,-9.016693,0.458683,-0.229033,3.977466,5.631459,-7.650339,1.894362,-3.858134,-6.003872,0.116470,6.604580,2.579897,-0.968053
9.991055,5.829574,-5.253979,-0.704317,7.512833,2.490416,8.045273,-6.467603,10.128961,-1.222983,0.236536,8.421560,0.827090,5.530637,5.052883,9.695928,-2.112714,8.112104,8.020844,-3.074200,-14.646845,8.645548,10.589337,-9.571686,-0.032527,-2.142668,11.410170,2.033973,-1.844220,6.339184,-7.215868,12.345469,-3.385175,3.485018,-7.541885,-13.594630,2.216221,-1.756501,-3.822295,-6.461555,0.483231,-0.785098,-10.365757,8.175083,-1.339953,-3.685735,4.554273,6.862176,8.212358,-1.760944,-6.572559,-9.564650,-0.418760,-4.007462,-5.390978,5.777955,-1.069388,11.866184,-1.564156,0.166473,2.601357,5.490135,5.747180,-11.048583,-2.592434,5.802855,-4.718596,0.834100,-5.736157,-2.061203,11.458910,-0.998714,-9.031788,0.394890,-4.984293,-7.285325,3.012646,-1.640328,-5.370561,5.292264,3.222164,1.067572,1.760352,3.619516,-0.559378,4.583164,-6.706794,-11.737554,0.709660,1.105137,5.089681,7.638383,-9.508988,1.705051,-4.708713,-5.292236,-0.689906,6.583125,2.845228,-2.271849
13.907519,8.011771,-7.504769,-0.969459,11.773499,1.768291,7.970095,-10.376128,9.800248,0.931552,0.954569,7.569585,-2.256217,7.457731,4.063923,13.958076,-0.484375,5.275706,9.918621,-1.600590,-18.235205,8.704249,14.474884,-14.211605,-3.697147,-6.361203,12.613196,6.709987,0.972335,7.026446,-5.240239,16.350929,-6.195930,1.084820,-9.604586,-17.818684,4.691660,-0.431887,-6.366460,-8.799465,0.690041,-5.745722,-11.207806,10.536923,1.191635,-1.992563,5.135448,6.844213,12.812528,-3.686281,-11.287253,-13.082452,2.103796,-0.006419,-9.908979,7.991097,-5.193321,15.488066,-1.934671,4.025289,1.766860,4.995119,8.273120,-10.952518,-2.036496,5.066914,-3.086025,1.043122,-5.187825,-5.447903,14.559213,-3.021783,-11.714001,-2.009722,-8.210138,-11.926661,1.482178,-1.462647,-7.032628,2.481331,7.919726,2.659198,1.112259,5.027270,-0.034620,5.550156,-9.393958,-13.084414,0.874550,5.307125,5.953804,11.854436,-12.210087,0.588875,-6.123881,-2.248400,-2.507267,4.524846,1.708899,-6.219090
18.531849,10.435894,-12.075039,-1.876526,16.669708,0.961084,8.227349,-16.493181,8.923083,3.557023,1.835006,7.368998,-6.854609,9.605337,3.260595,19.669495,0.969140,2.882457,11.460652,-0.017973,-22.179659,7.725444,19.649446,-20.033968,-7.664402,-12.142719,14.581082,11.230695,3.659701,6.600956,-2.762708,21.414454,-8.641793,-1.945069,-10.491426,-21.378897,8.117187,1.823804,-9.692641,-11.783405,1.810697,-10.961849,-13.056380,11.981565,4.011708,-1.152436,6.399234,8.135701,18.084948,-6.569364,-16.999651,-18.434338,5.174903,4.607257,-15.714931,11.457697,-11.157566,20.015978,-2.812123,7.433987,1.430513,3.628623,11.822960,-10.958356,-2.581276,4.519644,-2.064193,1.591763,-4.606262,-10.018127,16.222153,-5.829743,-15.611762,-3.803644,-12.912325,-16.475847,1.250700,-2.568947,-8.359258,-0.042603,11.915822,2.827472,0.901313,6.039646,1.135845,7.180435,-11.861459,-16.111120,3.189344,10.826948,5.638614,15.939982,-15.003232,-1.424249,-6.060176,1.598045,-4.265090,2.511227,-0.829017,-11.905519
18.479362,11.222320,-12.636538,-2.151972,16.175051,0.807781,9.432725,-16.814211,10.099767,5.348648,3.210343,9.578732,-5.839223,9.992923,3.142903,20.743690,-0.704816,4.969294,12.852420,-1.803846,-23.828127,8.575852,20.548344,-20.214178,-6.649733,-11.122680,15.920062,9.898960,3.122066,6.594341,-5.351945,22.182480,-8.165554,-1.012318,-10.405802,-21.963596,9.049527,1.752239,-8.991967,-10.982874,2.746567,-9.371737,-13.826203,11.812755,3.892141,-1.611662,6.136055,9.242443,17.549171,-5.537539,-16.401316,-18.250080,4.853070,4.011612,-14.205195,11.461986,-11.014724,21.041601,-2.419889,5.210221,2.885485,4.273280,12.487294,-12.466932,-2.296905,5.633429,-2.942164,2.114786,-5.869301,-9.938395,16.269619,-5.093245,-16.039165,-3.917569,-12.608512,-16.805481,2.139891,-1.834618,-8.139780,1.330679,11.253183,2.174019,1.438983,6.201727,0.538522,6.906847,-11.958732,-16.926041,3.134593,9.502221,6.248993,16.935165,-15.846942,-0.909597,-6.864731,-0.686855,-3.700084,4.417693,-0.286829,-11.539895
12.933615,8.463975,-10.146407,-2.114632,12.066495,1.147027,8.209149,-13.045332,8.967663,5.048586,3.083766,8.597905,-4.938949,7.409244,2.324574,15.938085,-1.468010,5.453757,10.404975,-1.701848,-17.735952,5.328507,16.463701,-15.777348,-3.271031,-7.772503,13.214096,5.202225,0.595869,4.315657,-6.044331,17.285305,-6.201894,-0.473714,-7.499127,-16.329250,7.917718,0.966120,-5.070183,-6.772849,2.787136,-6.004117,-10.203692,7.766664,2.189778,-0.587316,4.776646,7.169720,12.980439,-3.037281,-11.619053,-12.997013,2.313251,1.617372,-8.354386,8.838222,-8.054181,16.893982,-1.682105,2.443710,3.788644,3.081889,9.810539,-10.421724,-2.628824,4.205138,-2.430120,1.694838,-5.275491,-6.269200,10.332438,-2.404352,-11.488671,-2.026852,-10.048967,-11.538043,2.483779,-1.678272,-6.049448,1.651396,6.996198,-0.368980,2.467210,3.699650,0.797270,5.600923,-8.327456,-12.176288,1.734835,5.812989,4.196423,11.467349,-12.070449,-1.360360,-4.654296,-1.108977,-2.693273,4.860782,0.563840,-7.884761
